{"learner":{"attributes":{"scikit_learn":"{\"_estimator_type\": \"regressor\"}"},"feature_names":["name","description","neighbourhood_cleansed","neighbourhood_group_cleansed","latitude","longitude","host_since","host_response_time","host_response_rate","host_acceptance_rate","host_is_superhost","host_listings_count","host_total_listings_count","host_verifications","host_has_profile_pic","host_identity_verified","calculated_host_listings_count","calculated_host_listings_count_entire_homes","calculated_host_listings_count_private_rooms","calculated_host_listings_count_shared_rooms","room_type","accommodates","bathrooms","bathrooms_text","bedrooms","beds","has_availability","availability_30","availability_60","availability_90","availability_365","instant_bookable","minimum_nights","maximum_nights","number_of_reviews","number_of_reviews_ltm","number_of_reviews_l30d","first_review","last_review","review_scores_rating","review_scores_accuracy","review_scores_cleanliness","review_scores_checkin","review_scores_communication","review_scores_location","review_scores_value","reviews_per_month","index","review_count","positive_count","positive_sum","negative_count","negative_sum","bath_private","bath_shared","bath_x","is_private","is_shared","is_entire","is_room","is_suite","is_hotel","is_condo","is_guesthouse","is_apartment","is_vacation_home","positive_review_avg","negative_review_avg","ac","aid","air","alarm","allowed","and","basics","bathtub","bed","bedroom","blankets","body","building","cameras","carbon","central","check","cleaning","closet","clothing","coffee","conditioner","conditioning","cooking","darkening","dedicated","dining","dishes","dishwasher","door","dropoff","dryer","elevator","entrance","essentials","exterior","extinguisher","extra","fire","first","free","freezer","gel","glasses","hair","hangers","heating","hot","in","iron","kettle","kit","kitchen","laundromat","linens","lock","lockbox","long","luggage","maker","microwave","monoxide","nearby","on","outdoor","oven","paid","parking","pets","pillows","premises","private","products","property","refrigerator","room","security","self","shades","shampoo","shower","silverware","smoke","soap","stays","storage","stove","street","table","term","toaster","tv","unit","washer","water","wifi","window","wine","with","workspace","kmeans_location_feature","pca_location_price_feature"],"feature_types":["int","int","float","float","float","float","int","int","float","float","int","float","float","int","i","i","int","int","int","int","int","int","float","float","float","float","int","int","int","int","int","i","int","int","int","int","int","float","float","float","float","float","float","float","float","float","float","int","int","int","float","int","float","int","int","int","int","int","int","int","int","int","int","int","int","int","float","float","float","float","float","float","float","float","float","float","float","float","float","float","float","float","float","float","float","float","float","float","float","float","float","float","float","float","float","float","float","float","float","float","float","float","float","float","float","float","float","float","float","float","float","float","float","float","float","float","float","float","float","float","float","float","float","float","float","float","float","float","float","float","float","float","float","float","float","float","float","float","float","float","float","float","float","float","float","float","float","float","float","float","float","float","float","float","float","float","float","float","float","float","float","float","float","float","float","float","float","float","int","float"],"gradient_booster":{"model":{"gbtree_model_param":{"num_parallel_tree":"1","num_trees":"300"},"iteration_indptr":[0,1,2,3,4,5,6,7,8,9,10,11,12,13,14,15,16,17,18,19,20,21,22,23,24,25,26,27,28,29,30,31,32,33,34,35,36,37,38,39,40,41,42,43,44,45,46,47,48,49,50,51,52,53,54,55,56,57,58,59,60,61,62,63,64,65,66,67,68,69,70,71,72,73,74,75,76,77,78,79,80,81,82,83,84,85,86,87,88,89,90,91,92,93,94,95,96,97,98,99,100,101,102,103,104,105,106,107,108,109,110,111,112,113,114,115,116,117,118,119,120,121,122,123,124,125,126,127,128,129,130,131,132,133,134,135,136,137,138,139,140,141,142,143,144,145,146,147,148,149,150,151,152,153,154,155,156,157,158,159,160,161,162,163,164,165,166,167,168,169,170,171,172,173,174,175,176,177,178,179,180,181,182,183,184,185,186,187,188,189,190,191,192,193,194,195,196,197,198,199,200,201,202,203,204,205,206,207,208,209,210,211,212,213,214,215,216,217,218,219,220,221,222,223,224,225,226,227,228,229,230,231,232,233,234,235,236,237,238,239,240,241,242,243,244,245,246,247,248,249,250,251,252,253,254,255,256,257,258,259,260,261,262,263,264,265,266,267,268,269,270,271,272,273,274,275,276,277,278,279,280,281,282,283,284,285,286,287,288,289,290,291,292,293,294,295,296,297,298,299,300],"tree_info":[0,0,0,0,0,0,0,0,0,0,0,0,0,0,0,0,0,0,0,0,0,0,0,0,0,0,0,0,0,0,0,0,0,0,0,0,0,0,0,0,0,0,0,0,0,0,0,0,0,0,0,0,0,0,0,0,0,0,0,0,0,0,0,0,0,0,0,0,0,0,0,0,0,0,0,0,0,0,0,0,0,0,0,0,0,0,0,0,0,0,0,0,0,0,0,0,0,0,0,0,0,0,0,0,0,0,0,0,0,0,0,0,0,0,0,0,0,0,0,0,0,0,0,0,0,0,0,0,0,0,0,0,0,0,0,0,0,0,0,0,0,0,0,0,0,0,0,0,0,0,0,0,0,0,0,0,0,0,0,0,0,0,0,0,0,0,0,0,0,0,0,0,0,0,0,0,0,0,0,0,0,0,0,0,0,0,0,0,0,0,0,0,0,0,0,0,0,0,0,0,0,0,0,0,0,0,0,0,0,0,0,0,0,0,0,0,0,0,0,0,0,0,0,0,0,0,0,0,0,0,0,0,0,0,0,0,0,0,0,0,0,0,0,0,0,0,0,0,0,0,0,0,0,0,0,0,0,0,0,0,0,0,0,0,0,0,0,0,0,0,0,0,0,0,0,0,0,0,0,0,0,0,0,0,0,0,0,0,0,0,0,0,0,0,0,0,0,0,0,0],"trees":[{"base_weights":[3.774597E-8,8.3603805E-1,-1.2201636E0,6.7602307E-1,2.3085654E0,-1.4276881E0,-1.9247541E-1,2.9949895E-1,1.1468616E0,2.3411937E0,-6.9797024E-2,-7.176474E-1,-1.6248481E0,1.0861453E-1,-9.2224157E-1,6.3383824E-1,-2.976519E-1,1.517016E0,7.7395E-1,2.4321375E0,1.5568122E0,-1.2392068E0,-1.5956013E-1,-1.2974727E0,-2.1049752E0,-1.3693554E0,2.6667553E-1,-1.1420261E0,-2.4824908E-1,3.8899153E-1,1.2229371E0,-2.0591965E-1,-2.2542317E0,2.1711728E-1,1.6551019E0,4.1288647E-1,1.3088393E0,8.651995E-2,1.2241633E-1,8.5645646E-1,1.05347574E-1,-6.7005235E-1,-1.6941496E0,-6.9943315E-1,3.4609506E-1,-1.7126948E0,-1.0673679E0,-1.8170798E0,-2.326578E0,-1.811569E0,-7.781553E-1,-2.0141512E-2,8.4829986E-1,-8.034078E-1,-1.5647988E0,-8.2249516E-1,3.337548E-1,-4.205671E-2,2.446129E-2,5.181383E-2,1.0388825E-1,-3.0760506E-2,-7.528082E-4,-1.1631296E-1,-6.091377E-2,3.3759948E-2,-9.809558E-3,7.182699E-2,9.5926546E-2,1.7165942E-2,9.054863E-2,5.060194E-2,8.3032034E-2,5.9340026E-2,-3.4082737E-2,-5.1705457E-2,5.499076E-3,-9.603385E-2,-5.360205E-2,-4.0643312E-2,3.4144446E-2,2.488978E-2,-6.009193E-2,-9.2413954E-2,-6.99947E-2,-6.215616E-2,-2.530863E-2,-6.875489E-2,-9.701135E-2,-1.1843926E-1,-4.383146E-2,-2.7580438E-2,-1.0084309E-1,1.5917264E-2,-5.5330027E-2,-4.0585272E-2,5.5924575E-3,4.792169E-2,-3.285833E-2,-6.0629345E-2,-1.5634594E-2,-9.198957E-2,-4.6315175E-2,-1.0732489E-2,-6.1354604E-2,-3.7196912E-2,3.6199164E-2],"categories":[],"categories_nodes":[],"categories_segments":[],"categories_sizes":[],"default_left":[0,0,0,0,0,0,0,0,0,0,0,0,0,0,0,0,0,0,0,0,0,0,0,0,0,0,0,0,0,0,0,0,0,0,0,0,0,0,0,0,0,0,0,0,0,0,0,0,0,0,0,0,0,0,0,0,0,0,0,0,0,0,0,0,0,0,0,0,0,0,0,0,0,0,0,0,0,0,0,0,0,0,0,0,0,0,0,0,0,0,0,0,0,0,0,0,0,0,0,0,0,0,0,0,0,0,0],"id":0,"left_children":[1,3,5,7,9,11,13,15,17,19,-1,21,23,25,27,29,31,33,35,37,39,41,43,45,47,49,51,53,55,57,59,61,63,65,67,69,71,-1,-1,73,-1,75,77,79,81,83,85,87,89,91,93,95,97,99,101,103,105,-1,-1,-1,-1,-1,-1,-1,-1,-1,-1,-1,-1,-1,-1,-1,-1,-1,-1,-1,-1,-1,-1,-1,-1,-1,-1,-1,-1,-1,-1,-1,-1,-1,-1,-1,-1,-1,-1,-1,-1,-1,-1,-1,-1,-1,-1,-1,-1,-1,-1],"loss_changes":[1.2810457E4,1.7543276E3,1.0886841E3,1.1915237E3,9.150488E1,5.9351855E2,1.8884415E2,7.462843E2,4.11136E2,4.7859863E1,0E0,2.6904727E2,5.197412E2,1.426333E2,3.6897903E1,3.4512067E2,2.4039984E2,2.6852808E2,2.8722186E2,3.1135254E0,2.8248367E1,1.2263464E2,1.22541405E2,1.8725464E2,8.164502E1,1.4015091E1,9.1934784E1,2.5799805E1,2.132996E1,2.0928296E2,1.1001941E2,1.002169E2,1.6430359E0,2.7585173E1,7.520166E1,8.6038315E1,6.096826E1,0E0,0E0,1.91008E1,0E0,6.0884735E1,3.528595E1,3.458091E1,5.507705E1,2.7269775E1,1.2522656E2,2.9445068E1,4.425049E1,7.423279E0,1.0076071E1,3.874803E1,3.0805984E1,2.110543E1,1.2869049E1,7.6064377E0,1.3996086E1,0E0,0E0,0E0,0E0,0E0,0E0,0E0,0E0,0E0,0E0,0E0,0E0,0E0,0E0,0E0,0E0,0E0,0E0,0E0,0E0,0E0,0E0,0E0,0E0,0E0,0E0,0E0,0E0,0E0,0E0,0E0,0E0,0E0,0E0,0E0,0E0,0E0,0E0,0E0,0E0,0E0,0E0,0E0,0E0,0E0,0E0,0E0,0E0,0E0,0E0],"parents":[2147483647,0,0,1,1,2,2,3,3,4,4,5,5,6,6,7,7,8,8,9,9,11,11,12,12,13,13,14,14,15,15,16,16,17,17,18,18,19,19,20,20,21,21,22,22,23,23,24,24,25,25,26,26,27,27,28,28,29,29,30,30,31,31,32,32,33,33,34,34,35,35,36,36,39,39,41,41,42,42,43,43,44,44,45,45,46,46,47,47,48,48,49,49,50,50,51,51,52,52,53,53,54,54,55,55,56,56],"right_children":[2,4,6,8,10,12,14,16,18,20,-1,22,24,26,28,30,32,34,36,38,40,42,44,46,48,50,52,54,56,58,60,62,64,66,68,70,72,-1,-1,74,-1,76,78,80,82,84,86,88,90,92,94,96,98,100,102,104,106,-1,-1,-1,-1,-1,-1,-1,-1,-1,-1,-1,-1,-1,-1,-1,-1,-1,-1,-1,-1,-1,-1,-1,-1,-1,-1,-1,-1,-1,-1,-1,-1,-1,-1,-1,-1,-1,-1,-1,-1,-1,-1,-1,-1,-1,-1,-1,-1,-1,-1],"split_conditions":[1E0,7.27E2,2E0,4E0,1.8935257E-1,-7.396084E1,1.572475E-1,-7.395288E1,-7.395328E1,2.017988E-1,-6.9797024E-2,4.071579E1,5E0,2E0,1E0,4.1E1,2E0,4.065733E1,6E0,6.4E1,-7.397973E1,2E0,2E0,2E0,1.08210064E-1,6.2712595E-2,3E0,-7.393429E1,4.77E0,2E0,3E0,-3.8778327E-2,-7.381276E1,7.884286E-2,5E0,8.6E1,7.084845E-2,8.651995E-2,1.2241633E-1,1.6789132E-1,1.05347574E-1,1E0,3.4E1,1.511154E-1,2.5E1,8.8E1,1E0,-7.3949234E1,1.7E1,4.51E0,7.82328E-2,4.67E0,1.3531266E-1,2.44E2,4.539E3,6.2712595E-2,2.110435E0,-4.205671E-2,2.446129E-2,5.181383E-2,1.0388825E-1,-3.0760506E-2,-7.528082E-4,-1.1631296E-1,-6.091377E-2,3.3759948E-2,-9.809558E-3,7.182699E-2,9.5926546E-2,1.7165942E-2,9.054863E-2,5.060194E-2,8.3032034E-2,5.9340026E-2,-3.4082737E-2,-5.1705457E-2,5.499076E-3,-9.603385E-2,-5.360205E-2,-4.0643312E-2,3.4144446E-2,2.488978E-2,-6.009193E-2,-9.2413954E-2,-6.99947E-2,-6.215616E-2,-2.530863E-2,-6.875489E-2,-9.701135E-2,-1.1843926E-1,-4.383146E-2,-2.7580438E-2,-1.0084309E-1,1.5917264E-2,-5.5330027E-2,-4.0585272E-2,5.5924575E-3,4.792169E-2,-3.285833E-2,-6.0629345E-2,-1.5634594E-2,-9.198957E-2,-4.6315175E-2,-1.0732489E-2,-6.1354604E-2,-3.7196912E-2,3.6199164E-2],"split_indices":[56,11,25,21,69,5,77,5,5,98,0,4,18,21,53,28,19,4,21,9,5,18,21,21,120,147,25,5,44,21,18,169,5,149,21,11,161,0,0,69,0,53,48,125,18,29,53,5,17,45,115,40,125,30,37,147,3,0,0,0,0,0,0,0,0,0,0,0,0,0,0,0,0,0,0,0,0,0,0,0,0,0,0,0,0,0,0,0,0,0,0,0,0,0,0,0,0,0,0,0,0,0,0,0,0,0,0],"split_type":[0,0,0,0,0,0,0,0,0,0,0,0,0,0,0,0,0,0,0,0,0,0,0,0,0,0,0,0,0,0,0,0,0,0,0,0,0,0,0,0,0,0,0,0,0,0,0,0,0,0,0,0,0,0,0,0,0,0,0,0,0,0,0,0,0,0,0,0,0,0,0,0,0,0,0,0,0,0,0,0,0,0,0,0,0,0,0,0,0,0,0,0,0,0,0,0,0,0,0,0,0,0,0,0,0,0,0],"sum_hessian":[1.2556E4,7.451E3,5.105E3,6.722E3,7.29E2,4.247E3,8.58E2,3.736E3,2.986E3,7.23E2,6E0,9.24E2,3.323E3,6.08E2,2.5E2,2.395E3,1.341E3,1.497E3,1.489E3,6.46E2,7.7E1,4.77E2,4.47E2,1.978E3,1.345E3,5.8E1,5.5E2,1.88E2,6.2E1,1.693E3,7.02E2,1.282E3,5.9E1,1.44E2,1.353E3,8.9E2,5.99E2,1.7E1,6.29E2,3.5E1,4.2E1,2.13E2,2.64E2,2.16E2,2.31E2,7.03E2,1.275E3,5.89E2,7.56E2,3.2E1,2.6E1,3.69E2,1.81E2,1.06E2,8.2E1,3.1E1,3.1E1,1.27E2,1.566E3,5.78E2,1.24E2,4.07E2,8.75E2,5.4E1,5E0,6.8E1,7.6E1,7.43E2,6.1E2,8.49E2,4.1E1,3.27E2,2.72E2,2.9E1,6E0,1.45E2,6.8E1,1.92E2,7.2E1,2E2,1.6E1,2.11E2,2E1,4.87E2,2.16E2,9.7E2,3.05E2,1.31E2,4.58E2,7.34E2,2.2E1,5E0,2.7E1,6E0,2E1,5.2E1,3.17E2,1.69E2,1.2E1,5.7E1,4.9E1,5.6E1,2.6E1,1.3E1,1.8E1,8E0,2.3E1],"tree_param":{"num_deleted":"0","num_feature":"170","num_nodes":"107","size_leaf_vector":"1"}},{"base_weights":[-5.2403804E-5,8.007936E-1,-1.0175076E0,6.4331245E-1,2.1901326E0,4.258E-1,-1.426058E0,4.434382E-1,1.6322815E0,2.3110764E0,1.1727972E0,1.1951631E0,-1.1667448E-1,-1.0121579E0,-1.805799E0,1.516061E0,2.298895E-1,9.351153E-1,1.729479E0,8.243429E-2,1.16327725E-1,1.4169705E0,-9.967223E-2,1.6838012E0,1.6888666E-1,3.000469E-1,-6.837994E-1,-1.4594809E0,-6.4290404E-1,-1.0710897E0,-1.9206369E0,1.2009443E0,1.9133941E0,5.032871E-1,-9.359111E-2,1.0881053E0,-5.200866E-2,1.8885705E0,1.2398964E0,1.5998527E0,-1.3446462E-2,2.073539E0,9.548292E-1,3.514931E-1,-9.10963E-1,6.6081816E-1,-1.6802235E-1,-1.1380894E0,-5.2468735E-1,-9.9787986E-1,-1.6682011E0,-8.7575936E-1,3.6452608E-3,-4.1184315E-1,-1.5556931E0,-1.7288316E0,-2.2078457E0,6.641269E-2,5.275629E-3,9.7811416E-2,1.415423E-2,9.196694E-3,4.3169808E-2,-1.7756863E-2,2.0325731E-2,5.7683583E-2,-1.9135844E-2,9.706818E-2,5.817163E-2,4.8071563E-2,8.327379E-2,4.3772455E-2,9.834825E-2,1.0634973E-1,-1.026791E-2,3.4062933E-2,9.8904505E-2,2.996926E-2,-3.586809E-2,-6.4138174E-2,2.091161E-2,2.5571559E-2,8.9358844E-2,3.0606017E-2,-2.1152359E-2,-2.1554224E-2,-6.2386543E-2,-4.3051902E-2,-1.358143E-2,-4.1714553E-2,-9.077418E-2,-8.976191E-2,-4.814888E-2,-2.0750383E-2,-5.8634885E-2,-6.961153E-3,6.494316E-2,-3.1950247E-2,6.304099E-2,-4.9881678E-2,-8.7564185E-2,-9.499012E-2,-6.5405875E-2,-1.12400435E-1,-4.295428E-2],"categories":[],"categories_nodes":[],"categories_segments":[],"categories_sizes":[],"default_left":[0,0,0,0,0,0,0,0,0,0,0,0,0,0,0,0,0,0,0,0,0,0,0,0,0,0,0,0,0,0,0,0,0,0,0,0,0,0,0,0,0,0,0,0,0,0,0,0,0,0,0,0,0,0,0,0,0,0,0,0,0,0,0,0,0,0,0,0,0,0,0,0,0,0,0,0,0,0,0,0,0,0,0,0,0,0,0,0,0,0,0,0,0,0,0,0,0,0,0,0,0,0,0,0,0],"id":1,"left_children":[1,3,5,7,9,11,13,15,17,19,21,23,25,27,29,31,33,35,37,-1,-1,39,-1,41,43,45,47,49,51,53,55,57,59,61,63,65,-1,67,69,71,-1,73,75,77,79,81,83,85,87,89,91,93,95,97,99,101,103,-1,-1,-1,-1,-1,-1,-1,-1,-1,-1,-1,-1,-1,-1,-1,-1,-1,-1,-1,-1,-1,-1,-1,-1,-1,-1,-1,-1,-1,-1,-1,-1,-1,-1,-1,-1,-1,-1,-1,-1,-1,-1,-1,-1,-1,-1,-1,-1],"loss_changes":[1.023257E4,1.536061E3,3.262038E3,1.2471636E3,8.526343E1,5.0973587E2,6.757529E2,1.2028889E3,7.027905E1,2.7055664E0,6.3127373E1,2.5296185E2,1.6965599E2,3.4014966E2,1.8752734E2,1.0688208E2,3.8758597E2,4.1022118E1,7.009473E1,0E0,0E0,2.2937683E1,0E0,9.518518E1,3.2658947E1,7.002153E1,2.1376892E1,8.8225586E1,1.7057913E2,9.711813E1,1.0316455E2,6.8055176E1,2.6262085E1,2.729709E2,2.6279224E2,1.2303223E1,0E0,2.4538818E1,2.5774353E1,1.5829895E1,0E0,2.7480713E1,3.2524437E1,3.7789433E1,1.2397181E1,3.845961E1,3.626995E1,5.5084457E0,1.9087555E1,3.7674347E1,5.5697998E1,1.1348004E2,5.5879562E1,5.0581093E1,1.746347E1,8.1601074E1,3.9996582E1,0E0,0E0,0E0,0E0,0E0,0E0,0E0,0E0,0E0,0E0,0E0,0E0,0E0,0E0,0E0,0E0,0E0,0E0,0E0,0E0,0E0,0E0,0E0,0E0,0E0,0E0,0E0,0E0,0E0,0E0,0E0,0E0,0E0,0E0,0E0,0E0,0E0,0E0,0E0,0E0,0E0,0E0,0E0,0E0,0E0,0E0,0E0,0E0],"parents":[2147483647,0,0,1,1,2,2,3,3,4,4,5,5,6,6,7,7,8,8,9,9,10,10,11,11,12,12,13,13,14,14,15,15,16,16,17,17,18,18,21,21,23,23,24,24,25,25,26,26,27,27,28,28,29,29,30,30,31,31,32,32,33,33,34,34,35,35,37,37,38,38,39,39,41,41,42,42,43,43,44,44,45,45,46,46,47,47,48,48,49,49,50,50,51,51,52,52,53,53,54,54,55,55,56,56],"right_children":[2,4,6,8,10,12,14,16,18,20,22,24,26,28,30,32,34,36,38,-1,-1,40,-1,42,44,46,48,50,52,54,56,58,60,62,64,66,-1,68,70,72,-1,74,76,78,80,82,84,86,88,90,92,94,96,98,100,102,104,-1,-1,-1,-1,-1,-1,-1,-1,-1,-1,-1,-1,-1,-1,-1,-1,-1,-1,-1,-1,-1,-1,-1,-1,-1,-1,-1,-1,-1,-1,-1,-1,-1,-1,-1,-1,-1,-1,-1,-1,-1,-1,-1,-1,-1,-1,-1,-1],"split_conditions":[2E0,7.27E2,1.9E1,1.5E0,1.2261957E-1,-7.39626E1,3E0,1.9E1,4E0,6.4E1,2.2986744E-1,1.04419716E-1,1E0,8.2E1,-7.397106E1,1.2115571E-1,-7.395482E1,5E0,-7.392983E1,8.243429E-2,1.16327725E-1,1.3357554E-1,-9.967223E-2,6.356555E-2,5.2E1,1.2288358E-1,2E0,-7.395969E1,2E0,3.963543E-2,1.3105208E-1,2.0098309E-1,2.2089207E-1,3E0,5.4E1,1.4897932E-1,-5.200866E-2,1.6108613E-1,7E0,1.1607562E-1,-1.3446462E-2,1.5358801E-1,1.2E1,6.884774E-2,5E0,1.8631104E-1,-7.394238E1,1E1,-4.659091E-2,7.002869E-2,2E0,-7.394452E1,2E0,1.9569425E-1,4.7516923E-2,8.7E1,1.7E1,6.641269E-2,5.275629E-3,9.7811416E-2,1.415423E-2,9.196694E-3,4.3169808E-2,-1.7756863E-2,2.0325731E-2,5.7683583E-2,-1.9135844E-2,9.706818E-2,5.817163E-2,4.8071563E-2,8.327379E-2,4.3772455E-2,9.834825E-2,1.0634973E-1,-1.026791E-2,3.4062933E-2,9.8904505E-2,2.996926E-2,-3.586809E-2,-6.4138174E-2,2.091161E-2,2.5571559E-2,8.9358844E-2,3.0606017E-2,-2.1152359E-2,-2.1554224E-2,-6.2386543E-2,-4.3051902E-2,-1.358143E-2,-4.1714553E-2,-9.077418E-2,-8.976191E-2,-4.814888E-2,-2.0750383E-2,-5.8634885E-2,-6.961153E-3,6.494316E-2,-3.1950247E-2,6.304099E-2,-4.9881678E-2,-8.7564185E-2,-9.499012E-2,-6.5405875E-2,-1.12400435E-1,-4.295428E-2],"split_indices":[20,11,32,23,112,5,18,32,21,9,136,77,54,29,5,99,5,18,5,0,0,88,0,95,11,77,21,5,25,169,120,98,124,21,28,140,0,105,21,70,0,155,27,169,21,98,5,34,52,169,25,5,23,98,120,29,17,0,0,0,0,0,0,0,0,0,0,0,0,0,0,0,0,0,0,0,0,0,0,0,0,0,0,0,0,0,0,0,0,0,0,0,0,0,0,0,0,0,0,0,0,0,0,0,0],"split_type":[0,0,0,0,0,0,0,0,0,0,0,0,0,0,0,0,0,0,0,0,0,0,0,0,0,0,0,0,0,0,0,0,0,0,0,0,0,0,0,0,0,0,0,0,0,0,0,0,0,0,0,0,0,0,0,0,0,0,0,0,0,0,0,0,0,0,0,0,0,0,0,0,0,0,0,0,0,0,0,0,0,0,0,0,0,0,0,0,0,0,0,0,0,0,0,0,0,0,0,0,0,0,0,0,0],"sum_hessian":[1.2556E4,7.026E3,5.53E3,6.312E3,7.14E2,1.22E3,4.31E3,5.252E3,1.06E3,6.37E2,7.7E1,5.04E2,7.16E2,2.064E3,2.246E3,8.71E2,4.381E3,1.31E2,9.29E2,1.7E1,6.2E2,7.2E1,5E0,3.41E2,1.63E2,4.13E2,3.03E2,9.32E2,1.132E3,3.05E2,1.941E3,4.88E2,3.83E2,2.374E3,2.007E3,1.22E2,9E0,6.99E2,2.3E2,6.5E1,7E0,2.21E2,1.2E2,1.4E2,2.3E1,2.33E2,1.8E2,7.7E1,2.26E2,2.92E2,6.4E2,8.32E2,3E2,1.3E2,1.75E2,1.168E3,7.73E2,4.37E2,5.1E1,3.73E2,1E1,1.259E3,1.115E3,1.318E3,6.89E2,1.17E2,5E0,6.5E2,4.9E1,1.41E2,8.9E1,2.3E1,4.2E1,2.16E2,5E0,9.6E1,2.4E1,1.14E2,2.6E1,1.8E1,5E0,2.07E2,2.6E1,4.4E1,1.36E2,1.1E1,6.6E1,9.6E1,1.3E2,2.45E2,4.7E1,5.41E2,9.9E1,3.27E2,5.05E2,2.71E2,2.9E1,1.15E2,1.5E1,4.7E1,1.28E2,8.28E2,3.4E2,7.5E2,2.3E1],"tree_param":{"num_deleted":"0","num_feature":"170","num_nodes":"105","size_leaf_vector":"1"}},{"base_weights":[-3.4688925E-5,7.548355E-1,-1.101737E0,6.103583E-1,2.0843768E0,-1.2906343E0,-1.6630377E-1,2.652923E-1,1.0418619E0,2.1140163E0,-6.394848E-2,-1.4544257E0,-5.839637E-1,2.7820426E-1,-9.6241456E-1,5.725728E-1,-2.835225E-1,7.6393044E-1,1.644416E0,2.1761074E0,1.1515417E0,-8.2850945E-1,-1.6368011E0,-1.7254771E-1,-8.9963746E-1,-1.2987953E-1,7.540112E-1,-7.168197E-1,-1.2759719E0,2.7555123E-1,1.0923E0,-1.5501664E0,-1.5786992E-1,1.1457709E0,3.8837364E-1,1.793277E0,1.17847E0,2.1998868E0,1.7732344E0,1.4364332E0,-3.204577E-2,-1.4877651E0,-3.6176684E-1,-1.3361212E0,-1.916265E0,-7.42497E-1,5.294046E-2,-1.1164479E0,-4.7143757E-1,-3.392886E-1,3.142863E-1,-1.4688675E0,8.89236E-1,-1.0961506E0,-4.3459117E-1,-1.3791677E0,3.3234467E-3,-4.20538E-2,1.8572597E-2,4.7042195E-2,9.820525E-2,-4.944781E-2,-1.0172709E-1,-1.2177137E-2,3.6858242E-2,3.3763878E-3,6.570655E-2,1.3521177E-2,5.5442568E-2,4.038156E-2,9.245973E-2,4.5684908E-2,7.915636E-2,7.621908E-2,1.1046608E-1,7.650574E-2,1.08377255E-1,4.1675027E-2,1.1015681E-1,-8.212022E-2,-2.213084E-2,8.81001E-2,-2.3138272E-2,-8.2623005E-2,-5.184005E-2,-1.0384049E-1,-8.42785E-2,-4.849948E-2,-2.1804309E-2,-4.5326836E-2,1.1418542E-2,-6.1010845E-2,-2.8659945E-2,-3.5251524E-2,-7.464904E-3,-4.88811E-2,-6.491717E-3,2.4328621E-2,-4.1156154E-2,-1.01536036E-1,-3.61703E-2,6.381672E-2,2.9303197E-2,-6.0569417E-2,8.9947125E-3,1.0316397E-2,-3.4601465E-2,-4.7890596E-2,-7.994704E-2,4.1127246E-2,-4.082259E-2],"categories":[],"categories_nodes":[],"categories_segments":[],"categories_sizes":[],"default_left":[0,0,0,0,0,0,0,0,0,0,0,0,0,0,0,0,0,0,0,0,0,0,0,0,0,0,0,0,0,0,0,0,0,0,0,0,0,0,0,0,0,0,0,0,0,0,0,0,0,0,0,0,0,0,0,0,0,0,0,0,0,0,0,0,0,0,0,0,0,0,0,0,0,0,0,0,0,0,0,0,0,0,0,0,0,0,0,0,0,0,0,0,0,0,0,0,0,0,0,0,0,0,0,0,0,0,0,0,0,0,0],"id":2,"left_children":[1,3,5,7,9,11,13,15,17,19,-1,21,23,25,27,29,31,33,35,37,39,41,43,45,47,49,51,53,55,57,59,61,63,65,67,69,71,73,75,77,-1,79,81,83,85,87,89,91,93,95,97,99,101,103,105,107,109,-1,-1,-1,-1,-1,-1,-1,-1,-1,-1,-1,-1,-1,-1,-1,-1,-1,-1,-1,-1,-1,-1,-1,-1,-1,-1,-1,-1,-1,-1,-1,-1,-1,-1,-1,-1,-1,-1,-1,-1,-1,-1,-1,-1,-1,-1,-1,-1,-1,-1,-1,-1,-1,-1],"loss_changes":[1.0443764E4,1.4301704E3,9.0201953E2,1.0007595E3,7.547632E1,4.908423E2,3.0424863E2,6.303704E2,4.9897266E2,4.0760986E1,0E0,3.9223877E2,1.0387326E2,1.0727928E2,2.2803864E1,3.6956995E2,2.1334406E2,2.9295728E2,6.3224854E1,2.604004E0,2.4410797E1,2.3946985E2,2.2171338E2,4.4891685E1,4.152939E1,2.7824314E1,7.795616E1,1.8258774E1,1.7694977E1,1.6372458E2,1.1315906E2,3.0880127E1,9.388265E1,1.8398572E2,8.748491E1,3.7748535E1,2.3303253E1,6.9189453E-1,8.055725E-1,1.6654495E1,0E0,5.1476624E1,9.905532E1,1.2033765E2,4.764746E1,6.4779167E0,4.2455708E1,1.621231E1,1.1483166E1,2.7014503E1,1.9212654E1,4.8135643E0,2.7535126E1,1.109951E1,1.6972479E1,9.951233E0,8.058921E0,0E0,0E0,0E0,0E0,0E0,0E0,0E0,0E0,0E0,0E0,0E0,0E0,0E0,0E0,0E0,0E0,0E0,0E0,0E0,0E0,0E0,0E0,0E0,0E0,0E0,0E0,0E0,0E0,0E0,0E0,0E0,0E0,0E0,0E0,0E0,0E0,0E0,0E0,0E0,0E0,0E0,0E0,0E0,0E0,0E0,0E0,0E0,0E0,0E0,0E0,0E0,0E0,0E0,0E0],"parents":[2147483647,0,0,1,1,2,2,3,3,4,4,5,5,6,6,7,7,8,8,9,9,11,11,12,12,13,13,14,14,15,15,16,16,17,17,18,18,19,19,20,20,21,21,22,22,23,23,24,24,25,25,26,26,27,27,28,28,29,29,30,30,31,31,32,32,33,33,34,34,35,35,36,36,37,37,38,38,39,39,41,41,42,42,43,43,44,44,45,45,46,46,47,47,48,48,49,49,50,50,51,51,52,52,53,53,54,54,55,55,56,56],"right_children":[2,4,6,8,10,12,14,16,18,20,-1,22,24,26,28,30,32,34,36,38,40,42,44,46,48,50,52,54,56,58,60,62,64,66,68,70,72,74,76,78,-1,80,82,84,86,88,90,92,94,96,98,100,102,104,106,108,110,-1,-1,-1,-1,-1,-1,-1,-1,-1,-1,-1,-1,-1,-1,-1,-1,-1,-1,-1,-1,-1,-1,-1,-1,-1,-1,-1,-1,-1,-1,-1,-1,-1,-1,-1,-1,-1,-1,-1,-1,-1,-1,-1,-1,-1,-1,-1,-1,-1,-1,-1,-1,-1,-1],"split_conditions":[1E0,7.27E2,2E0,4E0,1.9747084E-1,6E0,1E0,-7.395288E1,1.5E0,1.3266854E-1,-6.394848E-2,-7.3958305E1,1E0,2E0,1.5940253E-1,1.1E1,2E0,-7.395328E1,-7.392983E1,1.3529217E-1,1.7168361E-1,4.0701508E1,7E0,-3.4756985E-2,4.83E0,1.10598125E-1,2E0,2.95E2,1.5707536E-1,2E0,5.511E3,1E0,1.8E1,4.066616E1,1E1,4.065288E1,7E0,-7.4013756E1,3E0,1.3208011E-1,-3.204577E-2,1E0,1E0,8.1E1,6.422309E-2,3E0,2E0,5.148E3,1.8E1,9.9027777E-1,1.3897121E-1,4.069049E1,1E0,1.2786484E-1,6.1E1,-7.39503E1,1.0404238E-1,-4.20538E-2,1.8572597E-2,4.7042195E-2,9.820525E-2,-4.944781E-2,-1.0172709E-1,-1.2177137E-2,3.6858242E-2,3.3763878E-3,6.570655E-2,1.3521177E-2,5.5442568E-2,4.038156E-2,9.245973E-2,4.5684908E-2,7.915636E-2,7.621908E-2,1.1046608E-1,7.650574E-2,1.08377255E-1,4.1675027E-2,1.1015681E-1,-8.212022E-2,-2.213084E-2,8.81001E-2,-2.3138272E-2,-8.2623005E-2,-5.184005E-2,-1.0384049E-1,-8.42785E-2,-4.849948E-2,-2.1804309E-2,-4.5326836E-2,1.1418542E-2,-6.1010845E-2,-2.8659945E-2,-3.5251524E-2,-7.464904E-3,-4.88811E-2,-6.491717E-3,2.4328621E-2,-4.1156154E-2,-1.01536036E-1,-3.61703E-2,6.381672E-2,2.9303197E-2,-6.0569417E-2,8.9947125E-3,1.0316397E-2,-3.4601465E-2,-4.7890596E-2,-7.994704E-2,4.1127246E-2,-4.082259E-2],"split_indices":[56,11,25,21,78,35,54,5,22,127,0,5,54,24,77,27,21,5,5,73,78,4,12,169,44,99,21,1,127,21,6,19,35,4,35,4,21,5,25,88,0,53,24,29,74,36,21,37,35,50,93,4,53,111,33,5,68,0,0,0,0,0,0,0,0,0,0,0,0,0,0,0,0,0,0,0,0,0,0,0,0,0,0,0,0,0,0,0,0,0,0,0,0,0,0,0,0,0,0,0,0,0,0,0,0,0,0,0,0,0,0],"split_type":[0,0,0,0,0,0,0,0,0,0,0,0,0,0,0,0,0,0,0,0,0,0,0,0,0,0,0,0,0,0,0,0,0,0,0,0,0,0,0,0,0,0,0,0,0,0,0,0,0,0,0,0,0,0,0,0,0,0,0,0,0,0,0,0,0,0,0,0,0,0,0,0,0,0,0,0,0,0,0,0,0,0,0,0,0,0,0,0,0,0,0,0,0,0,0,0,0,0,0,0,0,0,0,0,0,0,0,0,0,0,0],"sum_hessian":[1.2556E4,7.451E3,5.105E3,6.722E3,7.29E2,4.247E3,8.58E2,3.736E3,2.986E3,7.23E2,6E0,3.447E3,8E2,5.51E2,3.07E2,2.395E3,1.341E3,2.045E3,9.41E2,6.78E2,4.5E1,7.79E2,2.668E3,3.48E2,4.52E2,2.97E2,2.54E2,1.74E2,1.33E2,1.525E3,8.7E2,1.2E2,1.221E3,1.013E3,1.032E3,7.11E2,2.3E2,6.36E2,4.2E1,3.9E1,6E0,3.22E2,4.57E2,1.288E3,1.38E3,9.8E1,2.5E2,2.99E2,1.53E2,2.02E2,9.5E1,1.4E1,2.4E2,7.3E1,1.01E2,1.23E2,1E1,1.2E2,1.405E3,7.43E2,1.27E2,5.7E1,6.3E1,1.115E3,1.06E2,1.37E2,8.76E2,8.88E2,1.44E2,3.9E1,6.72E2,1.41E2,8.9E1,1.1E1,6.25E2,2.9E1,1.3E1,2.3E1,1.6E1,2.8E2,4.2E1,2E1,4.37E2,6.24E2,6.64E2,8.09E2,5.71E2,5.5E1,4.3E1,3.8E1,2.12E2,2.5E2,4.9E1,8.8E1,6.5E1,4.9E1,1.53E2,8.3E1,1.2E1,7E0,7E0,1.04E2,1.36E2,6.7E1,6E0,2.9E1,7.2E1,4.4E1,7.9E1,5E0,5E0],"tree_param":{"num_deleted":"0","num_feature":"170","num_nodes":"111","size_leaf_vector":"1"}},{"base_weights":[-4.0908562E-5,7.223224E-1,-9.177858E-1,5.6211483E-1,1.8422245E0,-1.1733692E0,1.0008253E-1,3.7822065E-1,1.4735571E0,2.0122411E0,9.604578E-1,-1.381269E0,-6.3167095E-1,-2.5126892E-1,9.5429504E-1,2.887956E-1,1.3524902E0,1.2379304E0,1.6754149E0,2.0391667E0,3.7675012E-2,-8.363304E-2,1.087062E0,-1.0344815E0,-1.7997682E0,-1.7227134E-2,-1.3048036E0,-1.0359864E-2,-8.046108E-1,1.3703864E0,-1.9494648E-1,1.5701583E-1,7.867388E-1,1.6594335E0,9.6336544E-1,5.741156E-1,1.4002376E0,1.2856712E0,1.7596592E0,2.0491266E0,2.5619624E-2,1.3232296E0,1.537687E-1,-1.189067E0,2.8679806E-1,-1.871411E0,-8.669655E-1,5.3665113E-1,-4.7377485E-1,-3.998035E-1,-1.401562E0,5.8538213E-2,-9.195429E-2,-9.91087E-1,-2.31772E-1,1.6070732E0,4.928705E-1,-8.727436E-1,1.9584733E-1,-1.6191635E-4,2.7561307E-2,4.5974422E-2,-2.6084272E-2,8.707793E-2,2.0298392E-2,3.5607524E-2,6.606978E-2,5.2082878E-2,-2.7099347E-2,2.7964218E-2,7.4535936E-2,6.990918E-2,-1.6154448E-3,6.2711604E-2,9.048652E-2,1.0482117E-1,8.771947E-2,9.399573E-2,4.89134E-2,-7.3489877E-3,4.808029E-2,-6.425023E-2,-3.4304924E-2,4.4989567E-2,-2.7888993E-2,-9.504982E-2,-2.3317764E-2,-4.7358107E-2,3.0706976E-2,4.806531E-2,-3.3958175E-3,-4.0062632E-2,-4.704819E-4,-2.9204702E-2,3.342277E-2,-7.347059E-2,-2.8991995E-2,-1.1559138E-3,5.307248E-2,-6.6394925E-2,-2.8618116E-2,-2.9108753E-2,1.0903022E-2,3.0332137E-2,9.0099394E-2,-2.3118824E-2,4.11571E-2,-7.181748E-2,-6.9116727E-3,-5.45156E-2,2.1646103E-2],"categories":[],"categories_nodes":[],"categories_segments":[],"categories_sizes":[],"default_left":[0,0,0,0,0,0,0,0,0,0,0,0,0,0,0,0,0,0,0,0,0,0,0,0,0,0,0,0,0,0,0,0,0,0,0,0,0,0,0,0,0,0,0,0,0,0,0,0,0,0,0,0,0,0,0,0,0,0,0,0,0,0,0,0,0,0,0,0,0,0,0,0,0,0,0,0,0,0,0,0,0,0,0,0,0,0,0,0,0,0,0,0,0,0,0,0,0,0,0,0,0,0,0,0,0,0,0,0,0,0,0],"id":3,"left_children":[1,3,5,7,9,11,13,15,17,19,21,23,25,27,29,31,33,35,37,39,-1,-1,41,43,45,47,49,51,53,55,57,59,61,63,65,67,69,71,73,75,-1,77,79,81,83,85,87,89,91,93,95,97,-1,99,101,103,105,107,109,-1,-1,-1,-1,-1,-1,-1,-1,-1,-1,-1,-1,-1,-1,-1,-1,-1,-1,-1,-1,-1,-1,-1,-1,-1,-1,-1,-1,-1,-1,-1,-1,-1,-1,-1,-1,-1,-1,-1,-1,-1,-1,-1,-1,-1,-1,-1,-1,-1,-1,-1,-1],"loss_changes":[8.325267E3,1.2597266E3,1.4390083E3,1.0300703E3,1.2984253E2,4.9701562E2,3.336829E2,4.4551056E2,4.7010986E1,2.3407715E1,4.9822678E1,4.6168408E2,5.0788095E2,1.0503607E2,1.5520047E2,3.0756323E2,4.9760254E1,5.0912292E1,1.5894653E1,9.89917E0,0E0,0E0,3.0213608E1,3.5757544E2,9.501172E1,1.6285085E2,5.075354E1,6.940529E1,2.5300476E1,4.863965E1,2.321539E1,2.3431357E2,1.7087231E2,2.3895874E1,1.6327927E1,5.0659744E1,2.846106E1,1.5170639E1,9.169189E0,6.2893066E0,0E0,1.9284805E1,7.1870537E0,7.468359E1,9.576246E1,5.4899414E1,1.3053551E1,7.47745E1,5.3672935E1,1.18089E1,2.8641602E1,4.351037E1,0E0,2.4625595E1,9.58431E0,3.5371613E1,1.6786123E1,1.3048628E1,1.7547312E1,0E0,0E0,0E0,0E0,0E0,0E0,0E0,0E0,0E0,0E0,0E0,0E0,0E0,0E0,0E0,0E0,0E0,0E0,0E0,0E0,0E0,0E0,0E0,0E0,0E0,0E0,0E0,0E0,0E0,0E0,0E0,0E0,0E0,0E0,0E0,0E0,0E0,0E0,0E0,0E0,0E0,0E0,0E0,0E0,0E0,0E0,0E0,0E0,0E0,0E0,0E0,0E0],"parents":[2147483647,0,0,1,1,2,2,3,3,4,4,5,5,6,6,7,7,8,8,9,9,10,10,11,11,12,12,13,13,14,14,15,15,16,16,17,17,18,18,19,19,22,22,23,23,24,24,25,25,26,26,27,27,28,28,29,29,30,30,31,31,32,32,33,33,34,34,35,35,36,36,37,37,38,38,39,39,41,41,42,42,43,43,44,44,45,45,46,46,47,47,48,48,49,49,50,50,51,51,53,53,54,54,55,55,56,56,57,57,58,58],"right_children":[2,4,6,8,10,12,14,16,18,20,22,24,26,28,30,32,34,36,38,40,-1,-1,42,44,46,48,50,52,54,56,58,60,62,64,66,68,70,72,74,76,-1,78,80,82,84,86,88,90,92,94,96,98,-1,100,102,104,106,108,110,-1,-1,-1,-1,-1,-1,-1,-1,-1,-1,-1,-1,-1,-1,-1,-1,-1,-1,-1,-1,-1,-1,-1,-1,-1,-1,-1,-1,-1,-1,-1,-1,-1,-1,-1,-1,-1,-1,-1,-1,-1,-1,-1,-1,-1,-1,-1,-1,-1,-1,-1,-1],"split_conditions":[2E0,2.53E2,1E0,1.5E0,1.6995458E-1,3.1646132E0,3.1646132E0,1.7E1,8.760344E-2,3.5911646E-1,1.0101582E-1,4E0,4.078807E1,1.4598554E-1,4.078444E1,1.0429628E-1,9.4377026E-2,3E0,8.809799E-2,7.345807E-2,3.7675012E-2,-8.363304E-2,1.3486667E-1,2E0,6E0,7.90544E-2,3.4E1,4.6E1,5.489E3,7.892165E-2,7.345807E-2,5.1E1,1.01E2,1.55468E-1,4E0,8.4380604E-2,4.065288E1,1.14621356E-1,2.110435E0,5.71893E-2,2.5619624E-2,7E0,1.5E0,1.1E1,1E0,1.7E1,1.9E1,1.043448E-1,8.8E1,1.3444822E-1,2E0,1.0429628E-1,-9.195429E-2,5.2E1,6.360195E-2,7.315925E-2,7.193942E-2,5E0,7.6E1,-1.6191635E-4,2.7561307E-2,4.5974422E-2,-2.6084272E-2,8.707793E-2,2.0298392E-2,3.5607524E-2,6.606978E-2,5.2082878E-2,-2.7099347E-2,2.7964218E-2,7.4535936E-2,6.990918E-2,-1.6154448E-3,6.2711604E-2,9.048652E-2,1.0482117E-1,8.771947E-2,9.399573E-2,4.89134E-2,-7.3489877E-3,4.808029E-2,-6.425023E-2,-3.4304924E-2,4.4989567E-2,-2.7888993E-2,-9.504982E-2,-2.3317764E-2,-4.7358107E-2,3.0706976E-2,4.806531E-2,-3.3958175E-3,-4.0062632E-2,-4.704819E-4,-2.9204702E-2,3.342277E-2,-7.347059E-2,-2.8991995E-2,-1.1559138E-3,5.307248E-2,-6.6394925E-2,-2.8618116E-2,-2.9108753E-2,1.0903022E-2,3.0332137E-2,9.0099394E-2,-2.3118824E-2,4.11571E-2,-7.181748E-2,-6.9116727E-3,-5.45156E-2,2.1646103E-2],"split_indices":[20,11,53,22,137,3,3,35,96,134,114,18,4,97,4,100,155,28,99,155,0,0,127,24,35,95,33,18,38,154,155,28,17,145,27,76,4,106,3,95,0,27,22,35,54,17,11,97,9,112,25,100,0,28,133,162,112,34,8,0,0,0,0,0,0,0,0,0,0,0,0,0,0,0,0,0,0,0,0,0,0,0,0,0,0,0,0,0,0,0,0,0,0,0,0,0,0,0,0,0,0,0,0,0,0,0,0,0,0,0,0],"split_type":[0,0,0,0,0,0,0,0,0,0,0,0,0,0,0,0,0,0,0,0,0,0,0,0,0,0,0,0,0,0,0,0,0,0,0,0,0,0,0,0,0,0,0,0,0,0,0,0,0,0,0,0,0,0,0,0,0,0,0,0,0,0,0,0,0,0,0,0,0,0,0,0,0,0,0,0,0,0,0,0,0,0,0,0,0,0,0,0,0,0,0,0,0,0,0,0,0,0,0,0,0,0,0,0,0,0,0,0,0,0,0],"sum_hessian":[1.2556E4,7.026E3,5.53E3,6.148E3,8.78E2,4.42E3,1.11E3,5.117E3,1.031E3,7.35E2,1.43E2,3.193E3,1.227E3,7.87E2,3.23E2,4.688E3,4.29E2,4.79E2,5.52E2,7.19E2,1.6E1,6E0,1.37E2,1.748E3,1.445E3,6.42E2,5.85E2,5.49E2,2.38E2,2.37E2,8.6E1,3.708E3,9.8E2,2.38E2,1.91E2,9.5E1,3.84E2,1.01E2,4.51E2,7.14E2,5E0,1.09E2,2.8E1,1.565E3,1.83E2,1.341E3,1.04E2,2.9E2,3.52E2,5.7E1,5.28E2,5.3E2,1.9E1,1.79E2,5.9E1,1.86E2,5.1E1,3.1E1,5.5E1,2.637E3,1.071E3,8.9E2,9E1,2.23E2,1.5E1,1.14E2,7.7E1,6.7E1,2.8E1,3.8E1,3.46E2,9.3E1,8E0,4.3E1,4.08E2,6.1E2,1.04E2,4E1,6.9E1,2.1E1,7E0,1.313E3,2.52E2,1.06E2,7.7E1,1.313E3,2.8E1,9.9E1,5E0,1.7E2,1.2E2,2.06E2,1.46E2,4.9E1,8E0,4.87E2,4.1E1,4.91E2,3.9E1,9.8E1,8.1E1,3.3E1,2.6E1,3.1E1,1.55E2,1.3E1,3.8E1,1.7E1,1.4E1,8E0,4.7E1],"tree_param":{"num_deleted":"0","num_feature":"170","num_nodes":"111","size_leaf_vector":"1"}},{"base_weights":[2.8691873E-6,6.823274E-1,-9.9582213E-1,1.50192E0,4.971328E-1,5.9329566E-2,-1.2426674E0,1.3067681E0,1.9086571E0,3.3644515E-1,1.9889739E0,3.4406337E-1,-3.6065885E-1,-8.705409E-1,-1.5823768E0,1.4503081E0,7.5755894E-1,2.5688282E-1,1.9861479E0,1.6360106E-1,1.1837629E0,7.07134E-2,9.992211E-2,-2.0269088E-1,5.723744E-1,1.8003368E-1,-5.591005E-1,-1.2813228E0,-5.253776E-1,-1.3833824E0,-1.8707032E0,1.6675274E0,1.0477643E0,-4.8510468E-1,9.1032356E-1,-1.9958774E-3,1.7606389E-2,2.0577488E0,1.4108504E0,4.2345408E-1,-1.5858474E-1,-1.4948454E0,1.3248385E0,9.024152E-2,-5.6146866E-1,1.6617959E0,4.6569467E-1,-2.0288813E-1,8.7060136E-1,-9.8988193E-1,-4.2597175E-1,-8.7886566E-1,-1.4601457E0,-1.2374497E-1,-7.5169986E-1,-1.5231987E0,-9.300597E-1,-1.928519E0,-1.1519542E0,6.6032864E-2,9.534294E-2,4.1677307E-2,8.538952E-2,3.536898E-2,-4.8824877E-2,8.351207E-2,3.428562E-2,6.729908E-2,1.0418695E-1,7.5333335E-2,3.0351361E-2,1.3111763E-2,4.729792E-2,-1.9540548E-2,1.2665957E-2,7.8069107E-3,-9.187561E-2,4.851536E-2,7.707436E-2,-5.061132E-3,4.873392E-2,-4.027577E-2,-7.6139118E-3,9.674387E-2,1.2702378E-2,-4.0117875E-3,3.123255E-2,-2.5685433E-2,3.8903758E-2,5.387294E-2,-9.97019E-3,-5.877326E-2,-1.8745195E-2,-3.2971285E-2,-2.9409707E-3,-8.208499E-2,-3.0095799E-2,-7.95626E-2,-4.7287226E-2,-4.5450147E-2,9.455651E-3,-2.3921676E-2,-5.086547E-2,-8.401316E-2,-5.7666313E-2,-1.0604139E-2,-5.5434234E-2,-7.887288E-2,-9.9960215E-2,-8.347934E-2,-4.4257425E-2],"categories":[],"categories_nodes":[],"categories_segments":[],"categories_sizes":[],"default_left":[0,0,0,0,0,0,0,0,0,0,0,0,0,0,0,0,0,0,0,0,0,0,0,0,0,0,0,0,0,0,0,0,0,0,0,0,0,0,0,0,0,0,0,0,0,0,0,0,0,0,0,0,0,0,0,0,0,0,0,0,0,0,0,0,0,0,0,0,0,0,0,0,0,0,0,0,0,0,0,0,0,0,0,0,0,0,0,0,0,0,0,0,0,0,0,0,0,0,0,0,0,0,0,0,0,0,0,0,0,0,0],"id":4,"left_children":[1,3,5,7,9,11,13,15,17,19,21,23,25,27,29,31,33,35,37,39,41,-1,-1,43,45,47,49,51,53,55,57,59,61,63,65,-1,-1,67,69,71,73,75,77,79,81,83,85,87,89,91,93,95,97,99,101,103,105,107,109,-1,-1,-1,-1,-1,-1,-1,-1,-1,-1,-1,-1,-1,-1,-1,-1,-1,-1,-1,-1,-1,-1,-1,-1,-1,-1,-1,-1,-1,-1,-1,-1,-1,-1,-1,-1,-1,-1,-1,-1,-1,-1,-1,-1,-1,-1,-1,-1,-1,-1,-1,-1],"loss_changes":[8.532857E3,1.1303486E3,1.3299785E3,1.06488525E2,1.456831E3,1.16001854E2,5.2172705E2,7.229541E1,5.6192505E1,8.038383E2,3.8964844E-1,7.2267784E1,4.216066E1,2.796394E2,1.2145703E2,6.269641E1,3.7459427E1,6.0769963E-1,1.4520874E1,3.819184E2,3.5341455E2,0E0,0E0,1.8022364E1,4.664354E1,2.820658E1,1.6037605E1,6.3632324E1,9.7713684E1,7.990234E1,3.4346924E1,3.708069E1,3.5479095E1,1.3582274E1,2.8554062E1,0E0,0E0,4.1140137E0,2.9363785E0,2.1245172E2,1.9494797E2,2.6876572E1,6.64032E1,1.6185766E1,7.566681E0,1.3347931E1,3.2418724E1,2.1438047E1,8.625708E0,7.2059937E0,1.8903824E1,5.816652E1,4.0510986E1,9.5739174E1,4.944983E1,5.493579E1,3.8880707E1,1.7020996E1,7.91346E0,0E0,0E0,0E0,0E0,0E0,0E0,0E0,0E0,0E0,0E0,0E0,0E0,0E0,0E0,0E0,0E0,0E0,0E0,0E0,0E0,0E0,0E0,0E0,0E0,0E0,0E0,0E0,0E0,0E0,0E0,0E0,0E0,0E0,0E0,0E0,0E0,0E0,0E0,0E0,0E0,0E0,0E0,0E0,0E0,0E0,0E0,0E0,0E0,0E0,0E0,0E0,0E0],"parents":[2147483647,0,0,1,1,2,2,3,3,4,4,5,5,6,6,7,7,8,8,9,9,10,10,11,11,12,12,13,13,14,14,15,15,16,16,17,17,18,18,19,19,20,20,23,23,24,24,25,25,26,26,27,27,28,28,29,29,30,30,31,31,32,32,33,33,34,34,37,37,38,38,39,39,40,40,41,41,42,42,43,43,44,44,45,45,46,46,47,47,48,48,49,49,50,50,51,51,52,52,53,53,54,54,55,55,56,56,57,57,58,58],"right_children":[2,4,6,8,10,12,14,16,18,20,22,24,26,28,30,32,34,36,38,40,42,-1,-1,44,46,48,50,52,54,56,58,60,62,64,66,-1,-1,68,70,72,74,76,78,80,82,84,86,88,90,92,94,96,98,100,102,104,106,108,110,-1,-1,-1,-1,-1,-1,-1,-1,-1,-1,-1,-1,-1,-1,-1,-1,-1,-1,-1,-1,-1,-1,-1,-1,-1,-1,-1,-1,-1,-1,-1,-1,-1,-1,-1,-1,-1,-1,-1,-1,-1,-1,-1,-1,-1,-1,-1,-1,-1,-1,-1,-1],"split_conditions":[1E0,1.5E1,1E1,1.0429628E-1,2.33E2,1E0,3E0,3.6E1,4.063587E1,1.5E0,-7.4013756E1,2.110435E0,-7.396393E1,5.2E1,1.18575886E-1,-7.394176E1,4.4E1,-3.75E-2,-7.3945526E1,-7.395426E1,1E0,7.07134E-2,9.992211E-2,1.2907432E-1,1E0,1.0845964E-1,-6.2439684E-2,-7.395969E1,-7.394656E1,5.9E1,1E0,4E0,1.5E0,2.7661176E-2,5E0,-1.9958774E-3,1.7606389E-2,-2.45E0,3E0,4.8E1,5.4E1,3E0,3.3002498E-3,1.9E1,4.94E0,1.1431832E-1,4.0670444E1,4.07512E1,2.0297126E-1,4.94E0,1.3E1,4.066964E1,1E0,4.06596E1,1.3221443E-1,3.1646132E0,-7.3951294E1,9E0,4.06958E1,6.6032864E-2,9.534294E-2,4.1677307E-2,8.538952E-2,3.536898E-2,-4.8824877E-2,8.351207E-2,3.428562E-2,6.729908E-2,1.0418695E-1,7.5333335E-2,3.0351361E-2,1.3111763E-2,4.729792E-2,-1.9540548E-2,1.2665957E-2,7.8069107E-3,-9.187561E-2,4.851536E-2,7.707436E-2,-5.061132E-3,4.873392E-2,-4.027577E-2,-7.6139118E-3,9.674387E-2,1.2702378E-2,-4.0117875E-3,3.123255E-2,-2.5685433E-2,3.8903758E-2,5.387294E-2,-9.97019E-3,-5.877326E-2,-1.8745195E-2,-3.2971285E-2,-2.9409707E-3,-8.208499E-2,-3.0095799E-2,-7.95626E-2,-4.7287226E-2,-4.5450147E-2,9.455651E-3,-2.3921676E-2,-5.086547E-2,-8.401316E-2,-5.7666313E-2,-1.0604139E-2,-5.5434234E-2,-7.887288E-2,-9.9960215E-2,-8.347934E-2,-4.4257425E-2],"split_indices":[56,32,32,100,16,54,18,16,4,22,5,3,5,28,120,5,16,52,5,5,58,0,0,123,35,88,169,5,5,28,31,27,22,169,28,0,0,52,36,28,28,16,169,27,41,81,4,4,88,41,28,4,53,4,77,3,5,18,4,0,0,0,0,0,0,0,0,0,0,0,0,0,0,0,0,0,0,0,0,0,0,0,0,0,0,0,0,0,0,0,0,0,0,0,0,0,0,0,0,0,0,0,0,0,0,0,0,0,0,0,0],"split_type":[0,0,0,0,0,0,0,0,0,0,0,0,0,0,0,0,0,0,0,0,0,0,0,0,0,0,0,0,0,0,0,0,0,0,0,0,0,0,0,0,0,0,0,0,0,0,0,0,0,0,0,0,0,0,0,0,0,0,0,0,0,0,0,0,0,0,0,0,0,0,0,0,0,0,0,0,0,0,0,0,0,0,0,0,0,0,0,0,0,0,0,0,0,0,0,0,0,0,0,0,0,0,0,0,0,0,0,0,0,0,0],"sum_hessian":[1.2556E4,7.451E3,5.105E3,1.372E3,6.079E3,9.68E2,4.137E3,9.3E2,4.42E2,5.489E3,5.9E2,5.77E2,3.91E2,1.976E3,2.161E3,7.36E2,1.94E2,2E1,4.22E2,4.56E3,9.29E2,1.2E1,5.78E2,1.7E2,4.07E2,1.05E2,2.86E2,9.01E2,1.075E3,1.282E3,8.79E2,4.76E2,2.6E2,2.1E1,1.73E2,5E0,1.5E1,3.73E2,4.9E1,2.524E3,2.036E3,4.6E1,8.83E2,9.4E1,7.6E1,3.5E1,3.72E2,6.8E1,3.7E1,6.6E1,2.2E2,2.79E2,6.22E2,3.88E2,6.87E2,9.78E2,3.04E2,8.12E2,6.7E1,1.97E2,2.79E2,1.98E2,6.2E1,6E0,1.5E1,3.8E1,1.35E2,1.5E1,3.58E2,4.3E1,6E0,1.93E3,5.94E2,1.302E3,7.34E2,8E0,3.8E1,3.37E2,5.46E2,7.8E1,1.6E1,4.7E1,2.9E1,2.9E1,6E0,8.4E1,2.88E2,5.2E1,1.6E1,3.1E1,6E0,5E1,1.6E1,1.34E2,8.6E1,7.3E1,2.06E2,4.94E2,1.28E2,1.1E2,2.78E2,3.4E2,3.47E2,6.84E2,2.94E2,6.1E1,2.43E2,1.4E2,6.72E2,2.1E1,4.6E1],"tree_param":{"num_deleted":"0","num_feature":"170","num_nodes":"111","size_leaf_vector":"1"}},{"base_weights":[1.572396E-5,6.483387E-1,-9.461853E-1,5.0799364E-1,1.6720729E0,-4.6101993E-1,-1.2273545E0,1.8094762E-1,9.115562E-1,1.8225509E0,8.845251E-1,-1.1295558E0,-2.2953117E-1,-5.5549526E-1,-1.36342E0,-3.955546E-1,4.228179E-1,6.824385E-1,1.4179795E0,1.4097502E0,1.8872643E0,-8.151816E-2,1.0039515E0,-7.347357E-1,-1.3365406E0,8.80944E-2,-7.171022E-1,-1.4502826E-1,-1.1965305E0,-1.1370654E0,-1.7287589E0,-1.4034082E0,-2.8570953E-1,5.418824E-1,-1.0518062E0,1.031884E0,3.4220505E-1,1.1086193E0,1.6101116E0,1.0776587E0,1.6463927E0,6.896066E-2,1.8987662E0,6.758576E-1,1.6597117E0,-5.5827415E-1,-1.5278502E0,-5.814727E-3,-1.3984154E0,4.199582E-3,1.2700375E0,-5.0848323E-1,-1.1431053E0,-4.5800725E-1,7.3509485E-1,-1.3738503E0,-2.865449E-1,-1.4531777E0,-9.552271E-1,-4.302509E-1,-1.7674387E0,-4.6530314E-2,-9.002459E-2,-2.3017298E-2,1.958183E-3,1.636326E-2,4.838593E-2,-1.0836625E-1,2.5777805E-3,5.5680227E-2,-8.875923E-4,8.065398E-3,3.8665913E-2,4.4754054E-2,7.275554E-2,8.269922E-2,3.7411936E-2,6.3794434E-2,4.3423865E-2,9.035961E-2,4.630129E-2,6.154231E-2,9.526836E-2,5.9597462E-2,1.7037584E-2,7.0347205E-2,1.0040712E-1,-4.288279E-2,-4.9616224E-3,-3.436561E-2,-8.3423264E-2,3.797319E-2,-3.0019263E-2,-7.876902E-2,-6.1303474E-2,1.7213352E-2,-1.8274453E-2,7.188681E-2,-5.462214E-3,-3.981399E-2,-7.988899E-3,-7.4373305E-2,-4.628817E-2,-2.9593486E-2,5.053962E-2,4.3107765E-3,6.766096E-2,-7.186154E-2,3.412976E-2,1.9321432E-2,-4.5450874E-2,-3.1471834E-2,-7.631272E-2,-5.3318787E-2,-1.821181E-2,5.074659E-3,-3.0980906E-2,-9.349015E-2,-6.753396E-2],"categories":[],"categories_nodes":[],"categories_segments":[],"categories_sizes":[],"default_left":[0,0,0,0,0,0,0,0,0,0,0,0,0,0,0,0,0,0,0,0,0,0,0,0,0,0,0,0,0,0,0,0,0,0,0,0,0,0,0,0,0,0,0,0,0,0,0,0,0,0,0,0,0,0,0,0,0,0,0,0,0,0,0,0,0,0,0,0,0,0,0,0,0,0,0,0,0,0,0,0,0,0,0,0,0,0,0,0,0,0,0,0,0,0,0,0,0,0,0,0,0,0,0,0,0,0,0,0,0,0,0,0,0,0,0,0,0,0,0],"id":5,"left_children":[1,3,5,7,9,11,13,15,17,19,21,23,25,27,29,31,33,35,37,39,41,-1,43,45,47,49,51,53,55,57,59,61,63,65,67,69,71,73,75,77,79,-1,81,83,85,87,89,91,93,95,97,99,101,103,105,107,109,111,113,115,117,-1,-1,-1,-1,-1,-1,-1,-1,-1,-1,-1,-1,-1,-1,-1,-1,-1,-1,-1,-1,-1,-1,-1,-1,-1,-1,-1,-1,-1,-1,-1,-1,-1,-1,-1,-1,-1,-1,-1,-1,-1,-1,-1,-1,-1,-1,-1,-1,-1,-1,-1,-1,-1,-1,-1,-1,-1,-1],"loss_changes":[7.703628E3,1.069824E3,6.959619E2,8.6498694E2,1.0480859E2,2.8991296E2,2.9470166E2,5.0521442E2,3.3946582E2,1.7454834E1,4.548703E1,3.8407898E1,2.1594502E2,1.4349203E2,2.2023877E2,1.1816704E2,4.486384E2,2.4004858E2,5.248181E1,6.555969E0,1.1679688E0,0E0,2.899939E1,2.2659355E1,2.5928467E1,8.378394E1,4.8298553E1,9.234033E1,3.3975708E1,9.414575E1,5.077124E1,1.8037338E1,5.488047E1,2.1555066E2,2.351985E2,8.553931E1,7.9890045E1,2.4815735E1,1.9975464E1,8.408241E-1,5.276581E0,0E0,4.3676758E-1,1.6023655E1,1.225975E0,1.9017475E1,2.3990173E0,7.281152E0,7.2487183E0,9.944389E1,1.3110077E1,3.710491E1,1.2094879E1,4.9162697E1,3.517909E1,2.4181305E1,1.5431942E1,3.545813E1,6.9109314E1,3.1844292E0,3.9965332E1,0E0,0E0,0E0,0E0,0E0,0E0,0E0,0E0,0E0,0E0,0E0,0E0,0E0,0E0,0E0,0E0,0E0,0E0,0E0,0E0,0E0,0E0,0E0,0E0,0E0,0E0,0E0,0E0,0E0,0E0,0E0,0E0,0E0,0E0,0E0,0E0,0E0,0E0,0E0,0E0,0E0,0E0,0E0,0E0,0E0,0E0,0E0,0E0,0E0,0E0,0E0,0E0,0E0,0E0,0E0,0E0,0E0,0E0],"parents":[2147483647,0,0,1,1,2,2,3,3,4,4,5,5,6,6,7,7,8,8,9,9,10,10,11,11,12,12,13,13,14,14,15,15,16,16,17,17,18,18,19,19,20,20,22,22,23,23,24,24,25,25,26,26,27,27,28,28,29,29,30,30,31,31,32,32,33,33,34,34,35,35,36,36,37,37,38,38,39,39,40,40,42,42,43,43,44,44,45,45,46,46,47,47,48,48,49,49,50,50,51,51,52,52,53,53,54,54,55,55,56,56,57,57,58,58,59,59,60,60],"right_children":[2,4,6,8,10,12,14,16,18,20,22,24,26,28,30,32,34,36,38,40,42,-1,44,46,48,50,52,54,56,58,60,62,64,66,68,70,72,74,76,78,80,-1,82,84,86,88,90,92,94,96,98,100,102,104,106,108,110,112,114,116,118,-1,-1,-1,-1,-1,-1,-1,-1,-1,-1,-1,-1,-1,-1,-1,-1,-1,-1,-1,-1,-1,-1,-1,-1,-1,-1,-1,-1,-1,-1,-1,-1,-1,-1,-1,-1,-1,-1,-1,-1,-1,-1,-1,-1,-1,-1,-1,-1,-1,-1,-1,-1,-1,-1,-1,-1,-1,-1],"split_conditions":[1E0,2.63E2,2E0,4E0,1.6995458E-1,2E0,-7.397007E1,-1.6649115E-3,1.5E0,6.75E2,1.0101582E-1,-7.3958305E1,1E0,5.0316397E-2,1E1,2E0,9.3E1,-7.395328E1,2.790991E-3,1.7042927E-2,6.4E1,-8.151816E-2,-7.397973E1,7.254789E-2,3E1,5E0,2E0,1.2849309E-1,2.0901333E1,2E0,5E0,1E0,7.2E1,1.4E1,1.33E2,7.6091066E-2,6E0,7E0,1.6108613E-1,1.0424086E-1,3.65E2,6.896066E-2,-1.3111748E-2,1.2381633E-1,1.4786953E-1,6.2E1,9.836144E-2,2.4E1,3.9E1,-7.393824E1,1.0871637E-1,-1.779619E-2,6.8E1,2.222324E-1,7E0,3.1239522E-1,7.254789E-2,-7.39555E1,1E0,1.7770173E-1,1.1674868E-1,-4.6530314E-2,-9.002459E-2,-2.3017298E-2,1.958183E-3,1.636326E-2,4.838593E-2,-1.0836625E-1,2.5777805E-3,5.5680227E-2,-8.875923E-4,8.065398E-3,3.8665913E-2,4.4754054E-2,7.275554E-2,8.269922E-2,3.7411936E-2,6.3794434E-2,4.3423865E-2,9.035961E-2,4.630129E-2,6.154231E-2,9.526836E-2,5.9597462E-2,1.7037584E-2,7.0347205E-2,1.0040712E-1,-4.288279E-2,-4.9616224E-3,-3.436561E-2,-8.3423264E-2,3.797319E-2,-3.0019263E-2,-7.876902E-2,-6.1303474E-2,1.7213352E-2,-1.8274453E-2,7.188681E-2,-5.462214E-3,-3.981399E-2,-7.988899E-3,-7.4373305E-2,-4.628817E-2,-2.9593486E-2,5.053962E-2,4.3107765E-3,6.766096E-2,-7.186154E-2,3.412976E-2,1.9321432E-2,-4.5450874E-2,-3.1471834E-2,-7.631272E-2,-5.3318787E-2,-1.821181E-2,5.074659E-3,-3.0980906E-2,-9.349015E-2,-6.753396E-2],"split_indices":[56,11,18,21,78,21,5,169,22,11,114,5,54,169,18,21,16,5,169,169,9,0,5,169,33,21,7,88,50,21,8,54,29,27,16,169,21,21,105,167,11,0,169,112,72,29,131,35,28,5,142,169,9,106,11,83,169,5,53,71,91,0,0,0,0,0,0,0,0,0,0,0,0,0,0,0,0,0,0,0,0,0,0,0,0,0,0,0,0,0,0,0,0,0,0,0,0,0,0,0,0,0,0,0,0,0,0,0,0,0,0,0,0,0,0,0,0,0,0],"split_type":[0,0,0,0,0,0,0,0,0,0,0,0,0,0,0,0,0,0,0,0,0,0,0,0,0,0,0,0,0,0,0,0,0,0,0,0,0,0,0,0,0,0,0,0,0,0,0,0,0,0,0,0,0,0,0,0,0,0,0,0,0,0,0,0,0,0,0,0,0,0,0,0,0,0,0,0,0,0,0,0,0,0,0,0,0,0,0,0,0,0,0,0,0,0,0,0,0,0,0,0,0,0,0,0,0,0,0,0,0,0,0,0,0,0,0,0,0,0,0],"sum_hessian":[1.2556E4,7.451E3,5.105E3,6.554E3,8.97E2,1.874E3,3.231E3,3.621E3,2.933E3,7.52E2,1.45E2,4.81E2,1.393E3,5.45E2,2.686E3,1.07E3,2.551E3,2.021E3,9.12E2,1.05E2,6.47E2,6E0,1.39E2,1.67E2,3.14E2,8.44E2,5.49E2,3.33E2,2.12E2,1.661E3,1.025E3,1.04E2,9.66E2,2.361E3,1.9E2,9.96E2,1.025E3,3.52E2,5.6E2,4.6E1,5.9E1,1.7E1,6.3E2,9.4E1,4.5E1,1.38E2,2.9E1,1.4E1,3E2,7.89E2,5.5E1,3.7E2,1.79E2,2.46E2,8.7E1,1.77E2,3.5E1,6.04E2,1.057E3,3E1,9.95E2,4.9E1,5.5E1,6.28E2,3.38E2,1.571E3,7.9E2,9.4E1,9.6E1,9.24E2,7.2E1,7.23E2,3.02E2,2.2E2,1.32E2,5.32E2,2.8E1,2.1E1,2.5E1,4.7E1,1.2E1,8E0,6.22E2,3.6E1,5.8E1,2.9E1,1.6E1,8.3E1,5.5E1,5E0,2.4E1,6E0,8E0,1.44E2,1.56E2,4.11E2,3.78E2,4.9E1,6E0,2.02E2,1.68E2,6.7E1,1.12E2,2.26E2,2E1,4.3E1,4.4E1,1.72E2,5E0,1.7E1,1.8E1,5E1,5.54E2,8.89E2,1.68E2,8E0,2.2E1,7.96E2,1.99E2],"tree_param":{"num_deleted":"0","num_feature":"170","num_nodes":"119","size_leaf_vector":"1"}},{"base_weights":[1.7977098E-5,4.0756917E-1,-1.1570985E0,-1.0102063E0,5.288179E-1,-1.8116182E-1,-1.2992381E0,-1.3324969E0,-5.720829E-1,4.0464225E-1,1.5912818E0,6.444932E-1,-4.1037726E-1,-1.0362117E0,-1.4959936E0,-3.7202036E-1,-1.424074E0,-1.3050786E-2,-1.0389624E0,1.1220192E0,2.0067444E-1,1.7351302E0,8.4143496E-1,1.0031928E0,-4.8208788E-2,-6.246515E-1,6.5300274E-3,-1.334192E0,-7.517435E-1,-1.5591248E0,-9.0172744E-1,2.4375366E-1,-6.6559887E-1,-1.2156351E0,-1.6686518E0,-2.665567E-1,6.944408E-1,-7.8334564E-1,-1.9062797E0,1.2887813E0,6.41375E-2,-1.3359037E-1,7.7722776E-1,1.3686689E0,1.7933232E0,-7.802452E-2,9.55521E-1,1.3337814E0,4.1338575E-1,4.544154E-1,-7.2689813E-1,-8.941344E-1,-4.0968817E-1,-1.981584E-1,6.911978E-1,-1.4821111E0,-1.0625325E0,-1.057416E0,-5.526499E-1,-1.7290227E0,-1.337736E0,-1.2393857E0,-8.232717E-1,3.4608398E-2,-6.1513125E-3,-6.0563136E-2,-1.5273365E-2,-8.396762E-2,-5.2670863E-2,-8.499219E-2,-2.5598375E-2,2.8457737E-2,-2.6575947E-2,6.867596E-2,1.834541E-2,-4.8222356E-2,-5.0310814E-3,-1.098878E-1,-4.9552087E-2,4.6416E-2,8.051351E-2,-7.849776E-3,2.9988354E-2,3.972826E-3,-3.0545637E-2,2.536816E-2,6.133016E-2,8.191138E-2,5.080833E-2,7.54417E-2,9.113274E-2,5.8452196E-2,4.8965714E-3,8.347711E-2,3.5382275E-2,4.9885362E-2,4.7694207E-3,4.5872737E-2,-1.4847274E-2,-5.2230656E-2,-6.4587975E-3,8.316875E-4,-4.8338544E-2,-3.1342056E-2,1.730506E-3,-1.737368E-2,1.43832145E-2,4.562545E-3,5.3023078E-2,-7.67897E-2,-2.405162E-2,-3.4730863E-2,-6.89586E-2,-5.765087E-2,1.1145091E-2,-4.357959E-2,-1.4147456E-2,-8.764296E-2,-4.9183648E-2,-7.576483E-2,-4.2470492E-2,-5.2476652E-2,-7.91413E-2,-3.2089602E-2,-5.05924E-2],"categories":[],"categories_nodes":[],"categories_segments":[],"categories_sizes":[],"default_left":[0,0,0,0,0,0,0,0,0,0,0,0,0,0,0,0,0,0,0,0,0,0,0,0,0,0,0,0,0,0,0,0,0,0,0,0,0,0,0,0,0,0,0,0,0,0,0,0,0,0,0,0,0,0,0,0,0,0,0,0,0,0,0,0,0,0,0,0,0,0,0,0,0,0,0,0,0,0,0,0,0,0,0,0,0,0,0,0,0,0,0,0,0,0,0,0,0,0,0,0,0,0,0,0,0,0,0,0,0,0,0,0,0,0,0,0,0,0,0,0,0,0,0,0,0],"id":6,"left_children":[1,3,5,7,9,11,13,15,17,19,21,23,25,27,29,31,33,35,37,39,41,43,45,47,49,51,53,55,57,59,61,63,65,67,69,71,73,75,77,79,81,83,85,87,89,-1,91,93,95,97,99,101,103,105,107,109,111,113,115,117,119,121,123,-1,-1,-1,-1,-1,-1,-1,-1,-1,-1,-1,-1,-1,-1,-1,-1,-1,-1,-1,-1,-1,-1,-1,-1,-1,-1,-1,-1,-1,-1,-1,-1,-1,-1,-1,-1,-1,-1,-1,-1,-1,-1,-1,-1,-1,-1,-1,-1,-1,-1,-1,-1,-1,-1,-1,-1,-1,-1,-1,-1,-1,-1],"loss_changes":[5.9221543E3,1.5970018E3,4.5351514E2,1.0259839E2,1.1281677E3,7.918294E1,1.4620166E2,3.6500305E1,8.141863E1,1.1208925E3,9.507837E1,2.2659306E1,2.9215805E1,1.02835205E2,5.978418E1,7.031807E0,1.7547668E1,2.583263E1,3.619586E1,2.991167E2,1.1500728E3,1.3539795E1,4.149888E1,1.1147644E1,1.1246335E1,1.2146324E1,1.5833047E1,2.2414795E1,3.7694946E1,5.3091797E1,3.1917572E0,2.223256E0,4.739278E0,1.4103058E1,5.4075623E0,2.3774307E1,7.948017E0,1.6347382E1,7.959198E0,1.6827539E2,2.757349E1,3.8424112E2,2.649602E2,8.502441E0,2.6237793E0,0E0,2.5521614E1,6.8073654E0,4.178522E0,6.882717E0,2.523736E0,6.300812E0,1.1792339E1,6.4109974E0,5.6632366E0,1.9897644E1,2.3972275E1,3.0489838E1,3.269861E1,1.3021973E1,5.455249E1,1.6445923E-1,3.8680115E0,0E0,0E0,0E0,0E0,0E0,0E0,0E0,0E0,0E0,0E0,0E0,0E0,0E0,0E0,0E0,0E0,0E0,0E0,0E0,0E0,0E0,0E0,0E0,0E0,0E0,0E0,0E0,0E0,0E0,0E0,0E0,0E0,0E0,0E0,0E0,0E0,0E0,0E0,0E0,0E0,0E0,0E0,0E0,0E0,0E0,0E0,0E0,0E0,0E0,0E0,0E0,0E0,0E0,0E0,0E0,0E0,0E0,0E0,0E0,0E0,0E0,0E0],"parents":[2147483647,0,0,1,1,2,2,3,3,4,4,5,5,6,6,7,7,8,8,9,9,10,10,11,11,12,12,13,13,14,14,15,15,16,16,17,17,18,18,19,19,20,20,21,21,22,22,23,23,24,24,25,25,26,26,27,27,28,28,29,29,30,30,31,31,32,32,33,33,34,34,35,35,36,36,37,37,38,38,39,39,40,40,41,41,42,42,43,43,44,44,46,46,47,47,48,48,49,49,50,50,51,51,52,52,53,53,54,54,55,55,56,56,57,57,58,58,59,59,60,60,61,61,62,62],"right_children":[2,4,6,8,10,12,14,16,18,20,22,24,26,28,30,32,34,36,38,40,42,44,46,48,50,52,54,56,58,60,62,64,66,68,70,72,74,76,78,80,82,84,86,88,90,-1,92,94,96,98,100,102,104,106,108,110,112,114,116,118,120,122,124,-1,-1,-1,-1,-1,-1,-1,-1,-1,-1,-1,-1,-1,-1,-1,-1,-1,-1,-1,-1,-1,-1,-1,-1,-1,-1,-1,-1,-1,-1,-1,-1,-1,-1,-1,-1,-1,-1,-1,-1,-1,-1,-1,-1,-1,-1,-1,-1,-1,-1,-1,-1,-1,-1,-1,-1,-1,-1,-1,-1,-1,-1],"split_conditions":[1E0,2E0,7E0,3.1646132E0,9.7E2,7E0,3E0,6E0,4.07561E1,3E1,1.6995458E-1,1.1746343E-1,4.83E0,4.6E1,1.405E3,2.536E3,3E0,1.14698485E-1,8.6E1,1.2288358E-1,2E0,7.07E2,1.0101582E-1,4.73E0,1.5630476E-1,7.841053E-2,1.3735981E-1,3.1646132E0,2.110435E0,6.0374387E-2,3.1646132E0,6.698721E-2,4.93E0,4.06637E1,2.4538687E-1,2.422E3,9.573999E-2,8.8E1,1.3767305E-1,3.1646132E0,4.94E0,1E0,1.5E0,4.07638E1,1E0,-7.802452E-2,1.3357554E-1,1.6492115E-1,6.1E-1,7.800815E-2,1.2527692E-1,4.18E0,1.4414404E-1,1.12264216E-1,3.1646132E0,2E0,4.077982E1,4E0,4.069316E1,2.4115276E-1,8.7E1,1.6388968E-1,4.077592E1,3.4608398E-2,-6.1513125E-3,-6.0563136E-2,-1.5273365E-2,-8.396762E-2,-5.2670863E-2,-8.499219E-2,-2.5598375E-2,2.8457737E-2,-2.6575947E-2,6.867596E-2,1.834541E-2,-4.8222356E-2,-5.0310814E-3,-1.098878E-1,-4.9552087E-2,4.6416E-2,8.051351E-2,-7.849776E-3,2.9988354E-2,3.972826E-3,-3.0545637E-2,2.536816E-2,6.133016E-2,8.191138E-2,5.080833E-2,7.54417E-2,9.113274E-2,5.8452196E-2,4.8965714E-3,8.347711E-2,3.5382275E-2,4.9885362E-2,4.7694207E-3,4.5872737E-2,-1.4847274E-2,-5.2230656E-2,-6.4587975E-3,8.316875E-4,-4.8338544E-2,-3.1342056E-2,1.730506E-3,-1.737368E-2,1.43832145E-2,4.562545E-3,5.3023078E-2,-7.67897E-2,-2.405162E-2,-3.4730863E-2,-6.89586E-2,-5.765087E-2,1.1145091E-2,-4.357959E-2,-1.4147456E-2,-8.764296E-2,-4.9183648E-2,-7.576483E-2,-4.2470492E-2,-5.2476652E-2,-7.91413E-2,-3.2089602E-2,-5.05924E-2],"split_indices":[54,21,32,3,12,35,18,32,4,32,137,81,44,28,12,6,18,88,11,77,24,11,114,45,77,99,99,3,3,112,3,114,39,4,107,6,115,29,84,3,39,18,23,4,24,0,88,77,46,109,107,45,88,140,3,24,4,21,4,104,29,99,4,0,0,0,0,0,0,0,0,0,0,0,0,0,0,0,0,0,0,0,0,0,0,0,0,0,0,0,0,0,0,0,0,0,0,0,0,0,0,0,0,0,0,0,0,0,0,0,0,0,0,0,0,0,0,0,0,0,0,0,0,0,0],"split_type":[0,0,0,0,0,0,0,0,0,0,0,0,0,0,0,0,0,0,0,0,0,0,0,0,0,0,0,0,0,0,0,0,0,0,0,0,0,0,0,0,0,0,0,0,0,0,0,0,0,0,0,0,0,0,0,0,0,0,0,0,0,0,0,0,0,0,0,0,0,0,0,0,0,0,0,0,0,0,0,0,0,0,0,0,0,0,0,0,0,0,0,0,0,0,0,0,0,0,0,0,0,0,0,0,0,0,0,0,0,0,0,0,0,0,0,0,0,0,0,0,0,0,0,0,0],"sum_hessian":[1.2556E4,9.286E3,3.27E3,7.31E2,8.555E3,4.16E2,2.854E3,4.2E2,3.11E2,7.661E3,8.94E2,9E1,3.26E2,1.224E3,1.63E3,3.7E1,3.83E2,1.42E2,1.69E2,1.695E3,5.966E3,7.49E2,1.45E2,5.9E1,3.1E1,2.15E2,1.11E2,5.96E2,6.28E2,1.472E3,1.58E2,1.2E1,2.5E1,2.1E2,1.73E2,1.05E2,3.7E1,1.32E2,3.7E1,1.464E3,2.31E2,3.777E3,2.189E3,1.06E2,6.43E2,6E0,1.39E2,3.7E1,2.2E1,1.8E1,1.3E1,9.4E1,1.21E2,8.6E1,2.5E1,3.83E2,2.13E2,2.46E2,3.82E2,8.29E2,6.43E2,2.7E1,1.31E2,5E0,7E0,9E0,1.6E1,5.2E1,1.58E2,1.68E2,5E0,2.5E1,8E1,1.1E1,2.6E1,1.04E2,2.8E1,2.7E1,1E1,6.92E2,7.72E2,1.64E2,6.7E1,2.612E3,1.165E3,1.369E3,8.2E2,5.8E1,4.8E1,6.5E1,5.78E2,1.11E2,2.8E1,2.3E1,1.4E1,7E0,1.5E1,1.1E1,7E0,8E0,5E0,7E0,8.7E1,8.1E1,4E1,6.6E1,2E1,1E1,1.5E1,3.63E2,2E1,1E2,1.13E2,2.29E2,1.7E1,1.74E2,2.08E2,8.02E2,2.7E1,4.7E2,1.73E2,2E1,7E0,6.9E1,6.2E1],"tree_param":{"num_deleted":"0","num_feature":"170","num_nodes":"125","size_leaf_vector":"1"}},{"base_weights":[-2.9045133E-5,3.8719887E-1,-1.0994438E0,7.6607794E-1,-5.0113123E-2,-6.061812E-1,-1.214806E0,-3.7792042E-1,8.782388E-1,-4.2918783E-1,6.062772E-1,-1.3245004E0,-3.037281E-1,-1.0186532E0,-1.4946041E0,-5.978914E-1,1.3707109E-1,7.6081294E-1,1.7131666E0,-7.827522E-1,-1.4837334E-1,4.0644532E-1,1.1210216E0,-9.270175E-1,-1.523793E0,2.9956494E-3,-6.412853E-1,-8.9068156E-1,-1.2829359E0,-1.6405994E0,-1.2801162E0,-7.860487E-1,5.072368E-1,-1.9807171E-2,1.2179277E0,9.5062387E-1,3.1203625E-1,1.4012952E0,8.692247E-2,-1.2114425E0,-4.04103E-1,8.5635506E-2,-5.0631994E-1,4.4605768E-1,-1.535008E0,5.93984E-1,1.290169E0,-1.1194948E0,-3.290217E-1,-2.9424492E-2,-1.5590346E0,1.4084134E-1,-1.1384865E0,2.1693323E-2,-6.918365E-1,-1.0850736E0,-6.862947E-1,-1.4096217E0,-8.2355607E-1,-1.6923339E0,-3.937734E-1,-8.896372E-1,-1.4277241E0,-4.4765435E-2,-1.0597568E-2,1.0505221E-2,5.856945E-2,3.61529E-3,-6.476994E-2,2.2455204E-2,7.504228E-2,3.965781E-2,6.6858195E-2,2.0068152E-2,-7.298003E-2,4.797804E-2,8.098131E-2,-4.4256795E-2,-7.939624E-2,-1.0371346E-2,-3.7623927E-2,2.2177745E-3,7.540451E-2,-3.6646366E-2,-1.0125676E-2,1.5713966E-2,4.6061516E-2,-8.312015E-2,-4.4849414E-2,4.505654E-2,-7.0345686E-3,7.186508E-2,4.3532234E-2,-6.524275E-4,-6.2392395E-2,3.7095558E-2,-4.1853484E-2,-8.112062E-2,-5.1206525E-2,5.450824E-2,2.2249237E-4,-2.658762E-2,-6.963644E-2,-3.986464E-2,-1.1063902E-2,-6.434218E-2,-3.1785727E-2,-2.7461542E-2,-5.154127E-2,-7.148198E-2,6.490948E-3,-1.9699551E-2,-5.5849016E-2,-8.595928E-2,-5.5392183E-2,-3.7319478E-2,-6.515307E-4,-5.0216805E-2,3.501485E-2,-7.544283E-2,-4.0015277E-2],"categories":[],"categories_nodes":[],"categories_segments":[],"categories_sizes":[],"default_left":[0,0,0,0,0,0,0,0,0,0,0,0,0,0,0,0,0,0,0,0,0,0,0,0,0,0,0,0,0,0,0,0,0,0,0,0,0,0,0,0,0,0,0,0,0,0,0,0,0,0,0,0,0,0,0,0,0,0,0,0,0,0,0,0,0,0,0,0,0,0,0,0,0,0,0,0,0,0,0,0,0,0,0,0,0,0,0,0,0,0,0,0,0,0,0,0,0,0,0,0,0,0,0,0,0,0,0,0,0,0,0,0,0,0,0,0,0,0,0,0,0],"id":7,"left_children":[1,3,5,7,9,11,13,15,17,19,21,23,25,27,29,31,33,35,37,39,41,43,45,47,49,51,53,55,57,59,61,63,65,67,69,71,73,75,-1,77,79,81,83,85,87,89,91,93,95,-1,97,99,101,-1,103,105,107,109,111,113,115,117,119,-1,-1,-1,-1,-1,-1,-1,-1,-1,-1,-1,-1,-1,-1,-1,-1,-1,-1,-1,-1,-1,-1,-1,-1,-1,-1,-1,-1,-1,-1,-1,-1,-1,-1,-1,-1,-1,-1,-1,-1,-1,-1,-1,-1,-1,-1,-1,-1,-1,-1,-1,-1,-1,-1,-1,-1,-1,-1],"loss_changes":[5.346243E3,1.538786E3,1.85396E2,6.38812E2,1.0731763E3,1.347321E2,1.4391797E2,5.049297E1,4.4302344E2,2.713318E2,1.6196399E2,1.3163055E1,4.5454586E1,5.1651245E1,3.203247E1,6.527535E1,2.2745552E1,3.3830493E2,1.9637451E0,1.9592157E2,1.2778143E2,8.828006E1,3.8547485E1,6.9981003E0,3.0708618E0,3.6507824E1,1.1659348E1,4.117169E1,2.834491E1,4.09386E1,2.443628E1,1.655803E1,8.831575E0,1.3958491E1,3.0237026E0,1.6894263E2,1.87801E2,2.9787521E0,0E0,6.824963E1,4.3968964E1,5.4130703E1,4.136496E1,6.9654175E1,3.7829208E-1,2.472298E1,1.9303345E1,6.80048E0,9.87048E0,0E0,2.270935E0,2.6797432E1,3.1158485E0,0E0,9.7482605E0,4.8051514E1,2.3847977E1,1.2388977E1,1.3676941E1,7.8103027E0,3.6151876E0,2.3498802E1,1.5183594E1,0E0,0E0,0E0,0E0,0E0,0E0,0E0,0E0,0E0,0E0,0E0,0E0,0E0,0E0,0E0,0E0,0E0,0E0,0E0,0E0,0E0,0E0,0E0,0E0,0E0,0E0,0E0,0E0,0E0,0E0,0E0,0E0,0E0,0E0,0E0,0E0,0E0,0E0,0E0,0E0,0E0,0E0,0E0,0E0,0E0,0E0,0E0,0E0,0E0,0E0,0E0,0E0,0E0,0E0,0E0,0E0,0E0,0E0],"parents":[2147483647,0,0,1,1,2,2,3,3,4,4,5,5,6,6,7,7,8,8,9,9,10,10,11,11,12,12,13,13,14,14,15,15,16,16,17,17,18,18,19,19,20,20,21,21,22,22,23,23,24,24,25,25,26,26,27,27,28,28,29,29,30,30,31,31,32,32,33,33,34,34,35,35,36,36,37,37,39,39,40,40,41,41,42,42,43,43,44,44,45,45,46,46,47,47,48,48,50,50,51,51,52,52,54,54,55,55,56,56,57,57,58,58,59,59,60,60,61,61,62,62],"right_children":[2,4,6,8,10,12,14,16,18,20,22,24,26,28,30,32,34,36,38,40,42,44,46,48,50,52,54,56,58,60,62,64,66,68,70,72,74,76,-1,78,80,82,84,86,88,90,92,94,96,-1,98,100,102,-1,104,106,108,110,112,114,116,118,120,-1,-1,-1,-1,-1,-1,-1,-1,-1,-1,-1,-1,-1,-1,-1,-1,-1,-1,-1,-1,-1,-1,-1,-1,-1,-1,-1,-1,-1,-1,-1,-1,-1,-1,-1,-1,-1,-1,-1,-1,-1,-1,-1,-1,-1,-1,-1,-1,-1,-1,-1,-1,-1,-1,-1,-1,-1,-1],"split_conditions":[1E0,-7.395524E1,-7.396393E1,4.065733E1,2E0,4.067382E1,5E0,2E0,3.3E2,1E0,4E0,4.062814E1,2E0,2E0,1E2,1.2E1,2.50097E-1,2.1E1,1E0,1.1324285E0,-7.392131E1,2.13E2,3E0,9.658301E-2,9.83E2,3.1E1,2E0,6.7E1,2.6E1,1.7E1,-7.3949234E1,4.0649696E1,5.121E3,1.9851728E-1,8.7977566E-2,1.0429628E-1,1.5333112E-1,-7.400679E1,8.692247E-2,5E0,1.4736587E-1,2.16E2,6.7E1,2E0,1.6071008E-1,-7.389753E1,-7.387672E1,5.4162726E-2,9.127269E-2,-2.9424492E-2,1.61E0,4.58E0,1.214089E-1,2.1693323E-2,1.0947453E-1,5.485E3,-7.387672E1,4E0,-7.394624E1,1.37E0,4.074561E1,2.88439E-1,1.82E0,-4.4765435E-2,-1.0597568E-2,1.0505221E-2,5.856945E-2,3.61529E-3,-6.476994E-2,2.2455204E-2,7.504228E-2,3.965781E-2,6.6858195E-2,2.0068152E-2,-7.298003E-2,4.797804E-2,8.098131E-2,-4.4256795E-2,-7.939624E-2,-1.0371346E-2,-3.7623927E-2,2.2177745E-3,7.540451E-2,-3.6646366E-2,-1.0125676E-2,1.5713966E-2,4.6061516E-2,-8.312015E-2,-4.4849414E-2,4.505654E-2,-7.0345686E-3,7.186508E-2,4.3532234E-2,-6.524275E-4,-6.2392395E-2,3.7095558E-2,-4.1853484E-2,-8.112062E-2,-5.1206525E-2,5.450824E-2,2.2249237E-4,-2.658762E-2,-6.963644E-2,-3.986464E-2,-1.1063902E-2,-6.434218E-2,-3.1785727E-2,-2.7461542E-2,-5.154127E-2,-7.148198E-2,6.490948E-3,-1.9699551E-2,-5.5849016E-2,-8.595928E-2,-5.5392183E-2,-3.7319478E-2,-6.515307E-4,-5.0216805E-2,3.501485E-2,-7.544283E-2,-4.0015277E-2],"split_indices":[54,5,5,4,24,4,18,24,17,58,25,4,7,7,8,17,139,16,24,50,5,18,24,147,6,18,168,29,168,17,5,4,6,68,111,100,140,5,0,18,77,16,29,23,73,5,5,71,162,0,46,43,71,0,111,38,5,25,5,46,4,132,46,0,0,0,0,0,0,0,0,0,0,0,0,0,0,0,0,0,0,0,0,0,0,0,0,0,0,0,0,0,0,0,0,0,0,0,0,0,0,0,0,0,0,0,0,0,0,0,0,0,0,0,0,0,0,0,0,0,0],"split_type":[0,0,0,0,0,0,0,0,0,0,0,0,0,0,0,0,0,0,0,0,0,0,0,0,0,0,0,0,0,0,0,0,0,0,0,0,0,0,0,0,0,0,0,0,0,0,0,0,0,0,0,0,0,0,0,0,0,0,0,0,0,0,0,0,0,0,0,0,0,0,0,0,0,0,0,0,0,0,0,0,0,0,0,0,0,0,0,0,0,0,0,0,0,0,0,0,0,0,0,0,0,0,0,0,0,0,0,0,0,0,0,0,0,0,0,0,0,0,0,0,0],"sum_hessian":[1.2556E4,9.286E3,3.27E3,4.975E3,4.311E3,6.21E2,2.649E3,4.44E2,4.531E3,2.733E3,1.578E3,1.83E2,4.38E2,1.56E3,1.089E3,3.11E2,1.33E2,3.974E3,5.57E2,1.209E3,1.524E3,1.138E3,4.4E2,6.3E1,1.2E2,2.3E2,2.08E2,1.054E3,5.06E2,6.44E2,4.45E2,2.66E2,4.5E1,1.17E2,1.6E1,2.792E3,1.182E3,4.6E1,5.11E2,5.66E2,6.43E2,9.22E2,6.02E2,1.116E3,2.2E1,1.08E2,3.32E2,4.7E1,1.6E1,5E0,1.15E2,2.06E2,2.4E1,9E0,1.99E2,5.38E2,5.16E2,3.95E2,1.11E2,6.18E2,2.6E1,1.24E2,3.21E2,2.23E2,4.3E1,3.2E1,1.3E1,1.1E2,7E0,5E0,1.1E1,1.986E3,8.06E2,1.126E3,5.6E1,1.7E1,2.9E1,3.05E2,2.61E2,4.12E2,2.31E2,8.97E2,2.5E1,3.44E2,2.58E2,8.75E2,2.41E2,1.7E1,5E0,7.6E1,3.2E1,2.44E2,8.8E1,5E0,4.2E1,5E0,1.1E1,1.01E2,1.4E1,2.5E1,1.81E2,8E0,1.6E1,1.62E2,3.7E1,3.7E2,1.68E2,3.71E2,1.45E2,3.9E2,5E0,4.6E1,6.5E1,5.89E2,2.9E1,1.3E1,1.3E1,1.16E2,8E0,2.83E2,3.8E1],"tree_param":{"num_deleted":"0","num_feature":"170","num_nodes":"121","size_leaf_vector":"1"}},{"base_weights":[-8.0157675E-5,5.607516E-1,-8.1859136E-1,4.6928573E-1,1.6237508E0,-9.6893555E-1,-7.4143544E-2,1.9558793E-1,8.103809E-1,1.309649E0,1.6491517E0,-5.928569E-1,-1.1456397E0,2.6338395E-1,-6.788222E-1,-3.423105E-1,4.1357198E-1,6.278666E-1,1.3070778E0,1.5072701E0,4.0392544E-2,5.1826607E-2,8.276149E-2,-1.0003957E0,-3.9554477E-1,-9.9012125E-1,-1.4411297E0,-6.853936E-2,6.502457E-1,-7.6329756E-1,4.0112442E-1,-1.2284831E0,-2.474648E-1,2.1514164E-1,9.447611E-1,3.0281922E-1,8.254833E-1,1.0218691E0,1.4562893E0,4.5755025E-2,8.007407E-2,-1.1814582E0,-7.703867E-1,-7.66019E-1,-1.2770185E-1,-1.2836624E0,-8.384607E-1,-1.5396683E0,-5.4479724E-1,-2.614165E-1,2.5875288E-1,-1.3275318E0,7.706458E-1,-1.2342749E0,-6.380741E-1,-4.2584732E-1,1.070014E0,-7.031297E-2,-1.07525615E-2,-3.3830383E-3,-2.868864E-2,1.7193532E-2,-4.980216E-2,5.1046498E-2,-6.80314E-2,1.0690677E-2,5.292327E-2,3.410207E-2,6.2407233E-2,4.3303788E-2,7.579261E-2,7.633E-2,3.933658E-2,-6.065327E-2,-4.475537E-3,-4.500399E-2,-9.085991E-3,-4.5271613E-2,-2.4439728E-2,4.43854E-3,-2.0280514E-2,-6.7664124E-2,-3.8430855E-2,5.784584E-2,-4.3918397E-2,-7.81325E-2,9.073998E-4,-3.9582673E-2,4.5341566E-2,-1.9357998E-2,2.684764E-2,4.2581577E-2,3.909688E-4,-8.16159E-2,-2.9914966E-2,5.51455E-2,2.5518287E-2,-3.8466074E-2,-7.2649315E-2,-4.6282817E-2,-1.5780797E-2,2.3083374E-2,-6.2119376E-2,1.652723E-2,7.4543215E-2],"categories":[],"categories_nodes":[],"categories_segments":[],"categories_sizes":[],"default_left":[0,0,0,0,0,0,0,0,0,0,0,0,0,0,0,0,0,0,0,0,0,0,0,0,0,0,0,0,0,0,0,0,0,0,0,0,0,0,0,0,0,0,0,0,0,0,0,0,0,0,0,0,0,0,0,0,0,0,0,0,0,0,0,0,0,0,0,0,0,0,0,0,0,0,0,0,0,0,0,0,0,0,0,0,0,0,0,0,0,0,0,0,0,0,0,0,0,0,0,0,0,0,0,0,0],"id":8,"left_children":[1,3,5,7,9,11,13,15,17,19,21,23,25,27,29,31,33,35,37,39,-1,-1,-1,41,43,45,47,49,51,53,55,57,59,61,63,65,67,69,71,-1,-1,73,75,77,79,81,83,85,87,89,91,93,95,97,99,101,103,-1,-1,-1,-1,-1,-1,-1,-1,-1,-1,-1,-1,-1,-1,-1,-1,-1,-1,-1,-1,-1,-1,-1,-1,-1,-1,-1,-1,-1,-1,-1,-1,-1,-1,-1,-1,-1,-1,-1,-1,-1,-1,-1,-1,-1,-1,-1,-1],"loss_changes":[5.764713E3,7.237825E2,5.7140894E2,6.4055054E2,2.5474854E0,2.8162036E2,1.7549696E2,4.4675934E2,2.7612805E2,3.6414795E0,3.0249023E-1,1.0896506E2,1.3133447E2,7.0926025E1,2.8404678E1,9.206656E1,2.855471E2,1.4337903E2,3.3408203E1,4.3131256E-1,0E0,0E0,0E0,1.7539032E1,9.099431E1,8.3331055E1,8.6954834E1,1.8879545E1,6.174482E1,1.6079971E1,1.3178177E1,1.8794968E1,5.8280643E1,3.0827386E2,1.3080548E2,5.6740204E1,8.342078E1,2.0620544E1,2.4032104E1,0E0,0E0,8.381744E0,1.4952957E1,1.443721E1,3.2161217E1,2.2052002E1,1.0079254E2,3.2070312E1,3.6552242E1,1.908115E1,1.6507156E1,2.3572845E0,2.0279205E1,4.881935E0,2.0851036E1,8.5451765E0,3.5528803E0,0E0,0E0,0E0,0E0,0E0,0E0,0E0,0E0,0E0,0E0,0E0,0E0,0E0,0E0,0E0,0E0,0E0,0E0,0E0,0E0,0E0,0E0,0E0,0E0,0E0,0E0,0E0,0E0,0E0,0E0,0E0,0E0,0E0,0E0,0E0,0E0,0E0,0E0,0E0,0E0,0E0,0E0,0E0,0E0,0E0,0E0,0E0,0E0],"parents":[2147483647,0,0,1,1,2,2,3,3,4,4,5,5,6,6,7,7,8,8,9,9,10,10,11,11,12,12,13,13,14,14,15,15,16,16,17,17,18,18,19,19,23,23,24,24,25,25,26,26,27,27,28,28,29,29,30,30,31,31,32,32,33,33,34,34,35,35,36,36,37,37,38,38,41,41,42,42,43,43,44,44,45,45,46,46,47,47,48,48,49,49,50,50,51,51,52,52,53,53,54,54,55,55,56,56],"right_children":[2,4,6,8,10,12,14,16,18,20,22,24,26,28,30,32,34,36,38,40,-1,-1,-1,42,44,46,48,50,52,54,56,58,60,62,64,66,68,70,72,-1,-1,74,76,78,80,82,84,86,88,90,92,94,96,98,100,102,104,-1,-1,-1,-1,-1,-1,-1,-1,-1,-1,-1,-1,-1,-1,-1,-1,-1,-1,-1,-1,-1,-1,-1,-1,-1,-1,-1,-1,-1,-1,-1,-1,-1,-1,-1,-1,-1,-1,-1,-1,-1,-1,-1,-1,-1,-1,-1,-1],"split_conditions":[1E0,3.3E2,2E0,4E0,1E0,2E0,1E0,-1.2545749E-3,2E0,6.787318E-2,-1.3111748E-2,2E0,1.2064392E-1,2E0,3.021807E-1,2E0,1E0,-4.76702E-3,1.9858805E-3,8.813102E-3,4.0392544E-2,5.1826607E-2,8.276149E-2,4.81E0,-2.0612335E-2,-2.8138919E-2,1E0,4.89E0,2E0,2E0,9.889593E-2,-1.4814345E-2,2E0,1.01E2,3E0,2E0,1.0429628E-1,4E0,1.6967137E-1,4.5755025E-2,8.007407E-2,2.4550438E-1,1.3715845E-1,8.49548E-2,1E0,2E0,1E0,1.7881197E-1,2.0844804E-1,1.4572465E-1,1.0937505E-1,9.579932E-2,1E0,2E0,4.75E0,7.110845E-2,-1.1487352E-2,-7.031297E-2,-1.07525615E-2,-3.3830383E-3,-2.868864E-2,1.7193532E-2,-4.980216E-2,5.1046498E-2,-6.80314E-2,1.0690677E-2,5.292327E-2,3.410207E-2,6.2407233E-2,4.3303788E-2,7.579261E-2,7.633E-2,3.933658E-2,-6.065327E-2,-4.475537E-3,-4.500399E-2,-9.085991E-3,-4.5271613E-2,-2.4439728E-2,4.43854E-3,-2.0280514E-2,-6.7664124E-2,-3.8430855E-2,5.784584E-2,-4.3918397E-2,-7.81325E-2,9.073998E-4,-3.9582673E-2,4.5341566E-2,-1.9357998E-2,2.684764E-2,4.2581577E-2,3.909688E-4,-8.16159E-2,-2.9914966E-2,5.51455E-2,2.5518287E-2,-3.8466074E-2,-7.2649315E-2,-4.6282817E-2,-1.5780797E-2,2.3083374E-2,-6.2119376E-2,1.652723E-2,7.4543215E-2],"split_indices":[56,17,25,21,24,18,54,169,23,169,169,21,120,24,132,21,31,169,169,169,0,0,0,44,169,169,31,39,21,21,72,169,7,17,20,36,100,24,105,0,0,104,104,139,54,36,24,88,147,164,71,165,53,16,39,120,169,0,0,0,0,0,0,0,0,0,0,0,0,0,0,0,0,0,0,0,0,0,0,0,0,0,0,0,0,0,0,0,0,0,0,0,0,0,0,0,0,0,0,0,0,0,0,0,0],"split_type":[0,0,0,0,0,0,0,0,0,0,0,0,0,0,0,0,0,0,0,0,0,0,0,0,0,0,0,0,0,0,0,0,0,0,0,0,0,0,0,0,0,0,0,0,0,0,0,0,0,0,0,0,0,0,0,0,0,0,0,0,0,0,0,0,0,0,0,0,0,0,0,0,0,0,0,0,0,0,0,0,0,0,0,0,0,0,0,0,0,0,0,0,0,0,0,0,0,0,0,0,0,0,0,0,0],"sum_hessian":[1.2556E4,7.451E3,5.105E3,6.862E3,5.89E2,4.247E3,8.58E2,3.808E3,3.054E3,4.8E1,5.41E2,1.359E3,2.888E3,5.51E2,3.07E2,1.098E3,2.71E3,2.235E3,8.19E2,3.3E1,1.5E1,7E0,5.34E2,4.42E2,9.17E2,1.895E3,9.93E2,2.97E2,2.54E2,2.85E2,2.2E1,1.05E2,9.93E2,1.974E3,7.36E2,8.46E2,1.389E3,2.84E2,5.35E2,6E0,2.7E1,2.45E2,1.97E2,3.84E2,5.33E2,6.43E2,1.252E3,8.94E2,9.9E1,1.87E2,1.1E2,1.4E1,2.4E2,5.8E1,2.27E2,1E1,1.2E1,8.9E1,1.6E1,6.41E2,3.52E2,1.785E3,1.89E2,7.13E2,2.3E1,7.58E2,8.8E1,1.039E3,3.5E2,2.18E2,6.6E1,4.83E2,5.2E1,2.38E2,7E0,1.61E2,3.6E1,2.54E2,1.3E2,3E2,2.33E2,5.65E2,7.8E1,2.4E1,1.228E3,8.81E2,1.3E1,8.5E1,1.4E1,1.62E2,2.5E1,3.2E1,7.8E1,9E0,5E0,1.04E2,1.36E2,2E1,3.8E1,1.19E2,1.08E2,5E0,5E0,5E0,7E0],"tree_param":{"num_deleted":"0","num_feature":"170","num_nodes":"105","size_leaf_vector":"1"}},{"base_weights":[-7.114218E-5,5.3278553E-1,-7.7775383E-1,4.1632438E-1,1.378023E0,-3.74949E-1,-1.0111948E0,1.9487494E-1,7.945113E-1,1.4976889E0,7.429558E-1,-5.169203E-1,3.996197E-1,-4.510713E-1,-1.1238848E0,5.335949E-1,-1.719281E-1,5.574829E-1,1.1767415E0,1.517721E0,5.352484E-1,8.439082E-1,-8.682131E-2,-2.9002294E-1,-7.397631E-1,5.417747E-1,-7.2819126E-1,-9.919993E-2,-9.999874E-1,-9.340854E-1,-1.4303133E0,6.689355E-1,-7.6006365E-1,-9.948544E-2,-1.3711597E0,8.091234E-1,3.348949E-1,1.2890055E0,8.3388335E-1,9.261296E-1,1.5387655E0,1.5164606E-2,6.34198E-1,5.3600585E-1,1.4614477E0,-5.106874E-1,1.07905315E-2,-5.709021E-1,-1.05072E0,7.3426914E-1,-1.5328057E-1,-1.0898327E0,1.06283715E-2,-3.7602141E-1,6.846769E-1,-1.1583339E0,-1.9367322E-1,-1.2468894E0,-8.4054E-1,-2.8872555E-1,-1.4643744E0,2.2672443E-2,5.607623E-2,-8.231713E-2,7.1177916E-3,-1.1351481E-2,2.4231449E-2,-2.5400165E-2,-8.181218E-2,4.321104E-2,-1.8488124E-2,9.824491E-3,4.0504813E-2,6.5599196E-2,-2.0810805E-2,4.636342E-2,-5.0993764E-4,2.5624654E-3,5.5704635E-2,6.658645E-2,7.802946E-2,1.7039998E-2,4.109482E-2,5.0442375E-2,1.1519662E-2,6.1175115E-2,8.976919E-2,-1.4284548E-2,-3.6622863E-2,-5.7132065E-2,4.789229E-3,-5.3495653E-2,-2.1642892E-2,-5.9037056E-2,-3.218944E-2,4.321299E-2,1.9215262E-3,-3.0025674E-2,4.245429E-2,-6.65959E-2,-2.1958636E-2,-2.3036895E-2,4.7966402E-2,5.7699718E-3,6.0671903E-2,-4.167985E-2,-7.028835E-2,1.969187E-2,-3.7003446E-2,-6.633257E-2,-3.3969324E-2,-2.055494E-2,-4.6447393E-2,1.0144168E-2,-2.3427049E-2,-7.677763E-2,-4.867683E-2],"categories":[],"categories_nodes":[],"categories_segments":[],"categories_sizes":[],"default_left":[0,0,0,0,0,0,0,0,0,0,0,0,0,0,0,0,0,0,0,0,0,0,0,0,0,0,0,0,0,0,0,0,0,0,0,0,0,0,0,0,0,0,0,0,0,0,0,0,0,0,0,0,0,0,0,0,0,0,0,0,0,0,0,0,0,0,0,0,0,0,0,0,0,0,0,0,0,0,0,0,0,0,0,0,0,0,0,0,0,0,0,0,0,0,0,0,0,0,0,0,0,0,0,0,0,0,0,0,0,0,0,0,0,0,0,0,0],"id":9,"left_children":[1,3,5,7,9,11,13,15,17,19,21,23,25,27,29,31,33,35,37,39,41,43,-1,45,47,49,51,53,55,57,59,61,63,65,67,69,71,73,75,77,79,-1,81,83,85,87,89,91,93,95,97,99,-1,101,103,105,107,109,111,113,115,-1,-1,-1,-1,-1,-1,-1,-1,-1,-1,-1,-1,-1,-1,-1,-1,-1,-1,-1,-1,-1,-1,-1,-1,-1,-1,-1,-1,-1,-1,-1,-1,-1,-1,-1,-1,-1,-1,-1,-1,-1,-1,-1,-1,-1,-1,-1,-1,-1,-1,-1,-1,-1,-1,-1,-1],"loss_changes":[5.2039526E3,7.329812E2,4.797439E2,5.484867E2,6.743555E1,2.0639383E2,2.0349756E2,5.1359015E2,2.1850403E2,1.3801758E1,3.775882E1,7.992691E1,4.7048786E1,1.047801E2,1.5511426E2,3.76765E2,1.7231151E2,8.3467224E1,3.452893E1,7.8125E0,1.978364E-1,2.5836517E1,0E0,5.224566E1,4.135443E1,3.476526E1,1.1458836E1,7.229944E1,2.68432E1,4.7642822E1,3.9510986E1,1.8927881E2,1.6339261E2,1.3964926E2,2.5024185E1,4.585193E1,5.2128204E1,2.7778442E1,1.8217972E1,4.547367E0,1.1523438E0,0E0,3.2567167E-1,1.349567E1,1.458435E0,2.2444168E1,3.2853077E1,3.5357407E1,1.4054535E1,1.8328651E1,2.6062485E1,3.1954231E0,0E0,2.8271015E1,2.6047997E1,1.3050217E1,1.1847944E1,1.6344788E1,4.8366516E1,2.8354237E0,3.3336914E1,0E0,0E0,0E0,0E0,0E0,0E0,0E0,0E0,0E0,0E0,0E0,0E0,0E0,0E0,0E0,0E0,0E0,0E0,0E0,0E0,0E0,0E0,0E0,0E0,0E0,0E0,0E0,0E0,0E0,0E0,0E0,0E0,0E0,0E0,0E0,0E0,0E0,0E0,0E0,0E0,0E0,0E0,0E0,0E0,0E0,0E0,0E0,0E0,0E0,0E0,0E0,0E0,0E0,0E0,0E0,0E0],"parents":[2147483647,0,0,1,1,2,2,3,3,4,4,5,5,6,6,7,7,8,8,9,9,10,10,11,11,12,12,13,13,14,14,15,15,16,16,17,17,18,18,19,19,20,20,21,21,23,23,24,24,25,25,26,26,27,27,28,28,29,29,30,30,31,31,32,32,33,33,34,34,35,35,36,36,37,37,38,38,39,39,40,40,42,42,43,43,44,44,45,45,46,46,47,47,48,48,49,49,50,50,51,51,53,53,54,54,55,55,56,56,57,57,58,58,59,59,60,60],"right_children":[2,4,6,8,10,12,14,16,18,20,22,24,26,28,30,32,34,36,38,40,42,44,-1,46,48,50,52,54,56,58,60,62,64,66,68,70,72,74,76,78,80,-1,82,84,86,88,90,92,94,96,98,100,-1,102,104,106,108,110,112,114,116,-1,-1,-1,-1,-1,-1,-1,-1,-1,-1,-1,-1,-1,-1,-1,-1,-1,-1,-1,-1,-1,-1,-1,-1,-1,-1,-1,-1,-1,-1,-1,-1,-1,-1,-1,-1,-1,-1,-1,-1,-1,-1,-1,-1,-1,-1,-1,-1,-1,-1,-1,-1,-1,-1,-1,-1],"split_conditions":[1E0,2.53E2,2E0,2E0,1.6938186E-1,2E0,-7.397106E1,-7.396322E1,1.5E0,3.5911646E-1,2.778062E-1,1E0,1.1721324E-1,5.0316397E-2,1E1,1.03E2,1E0,-7.3949234E1,-7.392983E1,9.7E1,4.6796417E0,-7.397973E1,-8.682131E-2,4.89E0,2E0,1E0,4.9E2,1.2849309E-1,2.0901333E1,4E0,5E0,1E0,9.229921E-2,2.8E1,2E0,1.0035268E-1,3E0,1.9950749E-1,1.2605122E-1,4.7E1,1E0,1.5164606E-2,4.95E2,1.13030754E-1,1.4786953E-1,-7.393824E1,8.9E1,4.7193933E0,1.0947453E-1,1.391157E-1,2.7E1,1.5025829E-1,1.06283715E-2,1.7341238E-1,7E0,1.2612487E-1,7.254789E-2,2.1E0,-7.3948906E1,1.10555485E-1,1.5206462E-1,2.2672443E-2,5.607623E-2,-8.231713E-2,7.1177916E-3,-1.1351481E-2,2.4231449E-2,-2.5400165E-2,-8.181218E-2,4.321104E-2,-1.8488124E-2,9.824491E-3,4.0504813E-2,6.5599196E-2,-2.0810805E-2,4.636342E-2,-5.0993764E-4,2.5624654E-3,5.5704635E-2,6.658645E-2,7.802946E-2,1.7039998E-2,4.109482E-2,5.0442375E-2,1.1519662E-2,6.1175115E-2,8.976919E-2,-1.4284548E-2,-3.6622863E-2,-5.7132065E-2,4.789229E-3,-5.3495653E-2,-2.1642892E-2,-5.9037056E-2,-3.218944E-2,4.321299E-2,1.9215262E-3,-3.0025674E-2,4.245429E-2,-6.65959E-2,-2.1958636E-2,-2.3036895E-2,4.7966402E-2,5.7699718E-3,6.0671903E-2,-4.167985E-2,-7.028835E-2,1.969187E-2,-3.7003446E-2,-6.633257E-2,-3.3969324E-2,-2.055494E-2,-4.6447393E-2,1.0144168E-2,-2.3427049E-2,-7.677763E-2,-4.867683E-2],"split_indices":[56,11,18,24,105,24,5,5,22,134,72,54,125,169,18,11,57,5,5,8,41,5,0,39,7,54,1,88,50,28,8,31,136,168,11,169,24,126,167,28,24,0,1,99,72,5,8,39,165,123,48,143,0,113,11,123,169,46,5,70,124,0,0,0,0,0,0,0,0,0,0,0,0,0,0,0,0,0,0,0,0,0,0,0,0,0,0,0,0,0,0,0,0,0,0,0,0,0,0,0,0,0,0,0,0,0,0,0,0,0,0,0,0,0,0,0,0],"split_type":[0,0,0,0,0,0,0,0,0,0,0,0,0,0,0,0,0,0,0,0,0,0,0,0,0,0,0,0,0,0,0,0,0,0,0,0,0,0,0,0,0,0,0,0,0,0,0,0,0,0,0,0,0,0,0,0,0,0,0,0,0,0,0,0,0,0,0,0,0,0,0,0,0,0,0,0,0,0,0,0,0,0,0,0,0,0,0,0,0,0,0,0,0,0,0,0,0,0,0,0,0,0,0,0,0,0,0,0,0,0,0,0,0,0,0,0,0],"sum_hessian":[1.2556E4,7.451E3,5.105E3,6.55E3,9.01E2,1.874E3,3.231E3,4.132E3,2.418E3,7.57E2,1.44E2,1.584E3,2.9E2,5.42E2,2.689E3,2.148E3,1.984E3,1.494E3,9.24E2,7.41E2,1.6E1,1.39E2,5E0,7.86E2,7.98E2,2.58E2,3.2E1,3.31E2,2.11E2,1.663E3,1.026E3,1.945E3,2.03E2,1.872E3,1.12E2,7E2,7.94E2,6.94E2,2.3E2,2.7E1,7.14E2,6E0,1E1,9.4E1,4.5E1,4.53E2,3.33E2,5.19E2,2.79E2,2.02E2,5.6E1,2.3E1,9E0,2.45E2,8.6E1,1.76E2,3.5E1,3.8E2,1.283E3,3E1,9.96E2,1.319E3,6.26E2,1.02E2,1.01E2,1.537E3,3.35E2,2.7E1,8.5E1,6.69E2,3.1E1,6.16E2,1.78E2,6.85E2,9E0,2.07E2,2.3E1,5E0,2.2E1,7.4E1,6.4E2,5E0,5E0,3.6E1,5.8E1,2.9E1,1.6E1,2.26E2,2.27E2,2.2E1,3.11E2,1.11E2,4.08E2,2.1E2,6.9E1,1.7E2,3.2E1,3.9E1,1.7E1,1.6E1,7E0,2.31E2,1.4E1,4.2E1,4.4E1,7.8E1,9.8E1,1.7E1,1.8E1,3.32E2,4.8E1,2.2E2,1.063E3,8E0,2.2E1,8.68E2,1.28E2],"tree_param":{"num_deleted":"0","num_feature":"170","num_nodes":"117","size_leaf_vector":"1"}},{"base_weights":[-8.0047306E-5,5.062103E-1,-7.389903E-1,1.2176812E0,3.4546104E-1,1.126495E-1,-9.382411E-1,1.3475492E0,6.8946725E-1,2.0106013E-1,1.433864E0,-2.5058073E-1,3.1660232E-1,-1.1618576E0,-6.2785953E-1,1.0592976E0,1.5400054E0,-6.202132E-1,8.010684E-1,-6.516942E-2,6.33146E-1,1.4543012E0,5.127977E-1,-3.160828E-1,1.2290045E0,5.2830064E-1,-1.4880295E-2,-1.269938E0,-8.9317703E-1,-4.5083398E-1,-1.2842267E0,7.033092E-1,1.2573779E0,1.2553827E0,1.6820488E0,2.511395E-2,-1.0725403E0,1.1341193E0,4.0708572E-1,-2.2310151E-1,3.7830907E-1,3.932628E-1,1.033795E0,1.4626671E0,8.5555845E-1,1.4514695E-2,3.0388657E-2,-6.0132724E-1,-1.3902818E-1,7.161057E-2,3.427462E-2,1.457977E0,4.3245435E-1,8.068211E-1,-1.2564524E-1,-1.3394762E0,-7.846885E-1,-1.2291398E0,-6.1643994E-1,-5.62692E-1,4.3460962E-1,-1.4026746E0,-3.0532125E-1,2.3389764E-2,5.0527405E-2,4.3372717E-2,7.339207E-2,6.5380044E-2,-4.2555563E-2,6.453087E-2,8.570256E-2,-7.1622044E-2,-3.566779E-2,6.1809238E-2,1.4568319E-2,2.5720304E-2,-8.3203755E-2,-2.1003326E-2,9.93018E-3,-1.6880045E-2,2.5031952E-2,1.4328438E-2,4.3003898E-2,3.6421698E-2,5.9646606E-2,6.0525365E-2,7.431307E-2,2.7502988E-2,5.346903E-2,-3.9567675E-2,-1.3406508E-2,9.729793E-3,-1.6629448E-2,8.302442E-2,1.0121214E-2,3.7777487E-3,3.293764E-2,1.7477665E-2,6.358915E-2,-1.9203462E-2,9.634285E-3,-6.8739995E-2,-4.9782354E-2,1.0840888E-2,-4.701647E-2,-4.740217E-2,-6.7766964E-2,-3.7273E-2,-1.6598977E-2,-3.400828E-2,-4.859782E-3,-3.676615E-2,2.8779123E-2,-7.39675E-2,-4.149323E-2,-2.552343E-2,1.1649527E-2],"categories":[],"categories_nodes":[],"categories_segments":[],"categories_sizes":[],"default_left":[0,0,0,0,0,0,0,0,0,0,0,0,0,0,0,0,0,0,0,0,0,0,0,0,0,0,0,0,0,0,0,0,0,0,0,0,0,0,0,0,0,0,0,0,0,0,0,0,0,0,0,0,0,0,0,0,0,0,0,0,0,0,0,0,0,0,0,0,0,0,0,0,0,0,0,0,0,0,0,0,0,0,0,0,0,0,0,0,0,0,0,0,0,0,0,0,0,0,0,0,0,0,0,0,0,0,0,0,0,0,0,0,0,0,0,0,0],"id":10,"left_children":[1,3,5,7,9,11,13,15,17,19,21,23,25,27,29,31,33,35,37,39,41,43,45,47,49,51,53,55,57,59,61,63,65,67,69,-1,71,73,75,77,79,81,83,85,87,-1,-1,89,91,-1,-1,93,95,97,99,101,103,105,107,109,111,113,115,-1,-1,-1,-1,-1,-1,-1,-1,-1,-1,-1,-1,-1,-1,-1,-1,-1,-1,-1,-1,-1,-1,-1,-1,-1,-1,-1,-1,-1,-1,-1,-1,-1,-1,-1,-1,-1,-1,-1,-1,-1,-1,-1,-1,-1,-1,-1,-1,-1,-1,-1,-1,-1,-1],"loss_changes":[4.6979873E3,8.51853E2,8.665427E2,9.325635E1,9.552832E2,7.1864624E1,2.8647412E2,5.9447388E1,4.0399033E1,6.1765894E2,1.265686E1,3.421212E1,4.35861E1,6.867578E1,2.0101721E2,3.0424042E1,2.4490479E1,1.1708854E1,3.2604813E1,2.328256E2,1.9632849E2,2.2348633E0,1.8281746E-1,1.6835186E1,6.749115E-1,3.31407E1,2.221819E1,5.6717773E1,6.367285E1,1.357367E2,4.224109E1,1.1177078E1,2.2033112E1,2.5642334E1,3.2493896E0,0E0,1.0464916E0,1.1337997E1,2.6862497E1,2.0366635E2,7.662394E1,6.360533E1,3.6354187E1,2.2763672E0,1.9564533E-1,0E0,0E0,7.892288E0,1.3496639E1,0E0,0E0,8.56311E0,2.7814407E1,5.7211914E0,1.7760841E1,1.6800537E1,3.4028824E1,9.783081E0,1.3772339E1,6.637442E1,2.5822248E1,1.3178223E1,4.646697E0,0E0,0E0,0E0,0E0,0E0,0E0,0E0,0E0,0E0,0E0,0E0,0E0,0E0,0E0,0E0,0E0,0E0,0E0,0E0,0E0,0E0,0E0,0E0,0E0,0E0,0E0,0E0,0E0,0E0,0E0,0E0,0E0,0E0,0E0,0E0,0E0,0E0,0E0,0E0,0E0,0E0,0E0,0E0,0E0,0E0,0E0,0E0,0E0,0E0,0E0,0E0,0E0,0E0,0E0],"parents":[2147483647,0,0,1,1,2,2,3,3,4,4,5,5,6,6,7,7,8,8,9,9,10,10,11,11,12,12,13,13,14,14,15,15,16,16,17,17,18,18,19,19,20,20,21,21,22,22,23,23,24,24,25,25,26,26,27,27,28,28,29,29,30,30,31,31,32,32,33,33,34,34,36,36,37,37,38,38,39,39,40,40,41,41,42,42,43,43,44,44,47,47,48,48,51,51,52,52,53,53,54,54,55,55,56,56,57,57,58,58,59,59,60,60,61,61,62,62],"right_children":[2,4,6,8,10,12,14,16,18,20,22,24,26,28,30,32,34,36,38,40,42,44,46,48,50,52,54,56,58,60,62,64,66,68,70,-1,72,74,76,78,80,82,84,86,88,-1,-1,90,92,-1,-1,94,96,98,100,102,104,106,108,110,112,114,116,-1,-1,-1,-1,-1,-1,-1,-1,-1,-1,-1,-1,-1,-1,-1,-1,-1,-1,-1,-1,-1,-1,-1,-1,-1,-1,-1,-1,-1,-1,-1,-1,-1,-1,-1,-1,-1,-1,-1,-1,-1,-1,-1,-1,-1,-1,-1,-1,-1,-1,-1,-1,-1,-1],"split_conditions":[1E0,1.5E1,1E1,4.3E1,4.78E2,-1.990983E-2,5.7E1,3.1646132E0,1E0,2E0,3.5911646E-1,5E0,1E0,3.1646132E0,1.4E1,4E0,4E0,2.7661176E-2,1.5470733E-1,8.760344E-2,1.5E0,1.7023279E-1,4.6796417E0,-7.747124E-2,1.5408441E-1,1E0,5.5E-1,1E0,-1.2602774E-2,2E0,7E0,2E0,2.110435E0,1.8E1,-5.3492766E-3,2.511395E-2,1.3712467E-1,5E1,1.2808296E-1,5E1,2.8E1,6E1,-1.2545749E-3,1E0,1.3E1,1.4514695E-2,3.0388657E-2,4.92E0,1.7E1,7.161057E-2,3.427462E-2,1.1431832E-1,4.93E0,1.3E1,1.1E1,2E0,5.3606126E-2,6.976545E-2,2E0,3.1646132E0,2E0,1.16674416E-1,8.029147E-2,2.3389764E-2,5.0527405E-2,4.3372717E-2,7.339207E-2,6.5380044E-2,-4.2555563E-2,6.453087E-2,8.570256E-2,-7.1622044E-2,-3.566779E-2,6.1809238E-2,1.4568319E-2,2.5720304E-2,-8.3203755E-2,-2.1003326E-2,9.93018E-3,-1.6880045E-2,2.5031952E-2,1.4328438E-2,4.3003898E-2,3.6421698E-2,5.9646606E-2,6.0525365E-2,7.431307E-2,2.7502988E-2,5.346903E-2,-3.9567675E-2,-1.3406508E-2,9.729793E-3,-1.6629448E-2,8.302442E-2,1.0121214E-2,3.7777487E-3,3.293764E-2,1.7477665E-2,6.358915E-2,-1.9203462E-2,9.634285E-3,-6.8739995E-2,-4.9782354E-2,1.0840888E-2,-4.701647E-2,-4.740217E-2,-6.7766964E-2,-3.7273E-2,-1.6598977E-2,-3.400828E-2,-4.859782E-3,-3.676615E-2,2.8779123E-2,-7.39675E-2,-4.149323E-2,-2.552343E-2,1.1649527E-2],"split_indices":[56,32,32,16,12,169,28,3,15,24,134,21,54,3,16,27,27,169,72,96,22,84,41,169,83,35,46,53,169,24,17,24,3,16,169,0,72,0,73,28,0,28,169,24,27,0,0,41,35,0,0,103,42,12,28,24,163,120,21,3,21,74,94,0,0,0,0,0,0,0,0,0,0,0,0,0,0,0,0,0,0,0,0,0,0,0,0,0,0,0,0,0,0,0,0,0,0,0,0,0,0,0,0,0,0,0,0,0,0,0,0,0,0,0,0,0,0],"split_type":[0,0,0,0,0,0,0,0,0,0,0,0,0,0,0,0,0,0,0,0,0,0,0,0,0,0,0,0,0,0,0,0,0,0,0,0,0,0,0,0,0,0,0,0,0,0,0,0,0,0,0,0,0,0,0,0,0,0,0,0,0,0,0,0,0,0,0,0,0,0,0,0,0,0,0,0,0,0,0,0,0,0,0,0,0,0,0,0,0,0,0,0,0,0,0,0,0,0,0,0,0,0,0,0,0,0,0,0,0,0,0,0,0,0,0,0,0],"sum_hessian":[1.2556E4,7.451E3,5.105E3,1.372E3,6.079E3,9.68E2,4.137E3,1.1E3,2.72E2,5.368E3,7.11E2,3.48E2,6.2E2,2.403E3,1.734E3,4.43E2,6.57E2,2.1E1,2.51E2,3.322E3,2.046E3,6.95E2,1.6E1,3.34E2,1.4E1,3.78E2,2.42E2,1.711E3,6.92E2,1.367E3,3.67E2,1.6E2,2.83E2,2.22E2,4.35E2,6E0,1.5E1,1.35E2,1.16E2,2.45E3,8.72E2,1.281E3,7.65E2,6.84E2,1.1E1,6E0,1E1,1.27E2,2.07E2,9E0,5E0,3.4E1,3.44E2,2.8E1,2.14E2,1.495E3,2.16E2,3.11E2,3.81E2,1.214E3,1.53E2,3.27E2,4E1,9.2E1,6.8E1,1.01E2,1.82E2,2.17E2,5E0,3.6E1,3.99E2,6E0,9E0,1.2E2,1.5E1,1.11E2,5E0,1.67E3,7.8E2,1.27E2,7.45E2,1.044E3,2.37E2,2.64E2,5.01E2,6.3E1,6.21E2,6E0,5E0,8E1,4.7E1,7.6E1,1.31E2,2.9E1,5E0,1.34E2,2.1E2,1.5E1,1.3E1,1.18E2,9.6E1,1.353E3,1.42E2,2.9E1,1.87E2,9.9E1,2.12E2,2.61E2,1.2E2,9.69E2,2.45E2,1.6E1,1.37E2,2.87E2,4E1,2.9E1,1.1E1],"tree_param":{"num_deleted":"0","num_feature":"170","num_nodes":"117","size_leaf_vector":"1"}},{"base_weights":[-3.9512302E-5,4.8099527E-1,-7.0209026E-1,1.1570159E0,3.2825556E-1,1.0727233E-1,-8.914499E-1,1.0039734E0,1.4760352E0,1.9103512E-1,1.3625369E0,-2.3791985E-1,3.0109647E-1,-1.119437E0,-6.0414517E-1,1.0803419E0,3.5854775E-1,1.5365427E0,4.489389E-2,-3.794403E-3,6.170029E-1,1.3818961E0,4.8979926E-1,-3.7895975E-1,1.9117686E-1,-7.4249946E-2,4.8090333E-1,-8.050718E-1,-1.2418154E0,-4.2957905E-1,-1.2344912E0,1.1086328E0,-6.5184516E-1,-9.3102224E-2,1.2380183E0,1.5932344E0,1.2040339E0,-1.05084935E-2,7.550012E-3,-2.265295E-1,3.9971408E-1,4.5366514E-1,1.0588865E0,1.3897305E0,8.195282E-1,1.3892638E-2,2.9007355E-2,-1.5215959E-1,-5.8329207E-1,3.011368E-1,-5.9592247E-1,2.4286805E-1,-4.8782176E-1,1.2514148E0,3.4900862E-1,-6.96437E-1,-1.1778682E0,-1.2872161E0,-7.932707E-1,-5.865182E-1,8.442579E-2,-1.429832E0,-6.1560434E-1,6.855386E-2,4.7346707E-2,1.7508924E-2,-6.2371682E-2,-5.147027E-2,1.4948186E-2,7.166255E-2,4.402868E-3,8.028021E-2,2.9791037E-2,3.2087278E-2,6.299345E-2,-9.395275E-4,-2.6059752E-2,2.3818333E-2,-4.7285806E-2,-5.230823E-3,2.7309744E-2,-7.7191964E-2,5.5154946E-2,6.970429E-2,3.3225384E-2,2.6324287E-2,5.1241156E-2,1.7018734E-4,-3.4837645E-2,-3.740048E-2,-1.4824497E-2,2.2450455E-2,-8.694741E-3,-4.468786E-2,-9.938368E-3,-5.3013988E-2,1.8175766E-2,-3.1037657E-2,1.0024722E-2,4.543147E-2,8.389547E-2,3.704082E-2,7.3773037E-3,-3.1688835E-2,-6.399058E-2,-6.165045E-2,1.5252898E-2,-5.8499623E-2,-6.965468E-2,-1.969382E-2,-5.464396E-2,-1.060843E-2,-3.9496705E-2,1.3781967E-2,-1.3639472E-2,-7.198612E-2,-3.5180222E-2,-2.098359E-2,-5.3028047E-2],"categories":[],"categories_nodes":[],"categories_segments":[],"categories_sizes":[],"default_left":[0,0,0,0,0,0,0,0,0,0,0,0,0,0,0,0,0,0,0,0,0,0,0,0,0,0,0,0,0,0,0,0,0,0,0,0,0,0,0,0,0,0,0,0,0,0,0,0,0,0,0,0,0,0,0,0,0,0,0,0,0,0,0,0,0,0,0,0,0,0,0,0,0,0,0,0,0,0,0,0,0,0,0,0,0,0,0,0,0,0,0,0,0,0,0,0,0,0,0,0,0,0,0,0,0,0,0,0,0,0,0,0,0,0,0,0,0,0,0],"id":11,"left_children":[1,3,5,7,9,11,13,15,17,19,21,23,25,27,29,31,33,35,37,39,41,43,45,47,49,51,53,55,57,59,61,63,65,67,69,71,73,-1,-1,75,77,79,81,83,85,-1,-1,87,89,91,93,95,97,99,101,103,105,107,109,111,113,115,117,-1,-1,-1,-1,-1,-1,-1,-1,-1,-1,-1,-1,-1,-1,-1,-1,-1,-1,-1,-1,-1,-1,-1,-1,-1,-1,-1,-1,-1,-1,-1,-1,-1,-1,-1,-1,-1,-1,-1,-1,-1,-1,-1,-1,-1,-1,-1,-1,-1,-1,-1,-1,-1,-1,-1,-1],"loss_changes":[4.2409727E3,7.690779E2,7.826443E2,6.5552734E1,8.626409E2,6.490411E1,2.7037012E2,4.550177E1,3.829242E1,4.4558157E2,1.1352661E1,2.1193844E1,4.194691E1,8.771533E1,2.0116766E2,4.1494995E1,3.9836544E1,6.0932007E0,5.4594946E-1,3.3128177E2,1.2113666E2,1.9276123E0,1.6433573E-1,1.209935E1,7.7092524E0,2.6610992E1,4.2246323E1,2.5463348E1,3.2742676E1,1.1596872E2,4.7114624E1,3.345752E1,8.791939E0,2.4902958E1,7.5071335E0,3.4848633E0,1.2635803E0,0E0,0E0,1.4537228E2,1.3565482E2,6.3699326E1,5.3945984E1,1.2373047E0,1.8236732E-1,0E0,0E0,1.0676934E1,6.297531E0,5.486868E0,1.1235023E0,1.8465866E1,8.176352E0,7.3933716E0,2.8307152E1,1.764885E1,1.2232727E1,1.7036621E1,1.8117126E1,8.367209E1,2.309377E1,1.1489868E0,8.01152E0,0E0,0E0,0E0,0E0,0E0,0E0,0E0,0E0,0E0,0E0,0E0,0E0,0E0,0E0,0E0,0E0,0E0,0E0,0E0,0E0,0E0,0E0,0E0,0E0,0E0,0E0,0E0,0E0,0E0,0E0,0E0,0E0,0E0,0E0,0E0,0E0,0E0,0E0,0E0,0E0,0E0,0E0,0E0,0E0,0E0,0E0,0E0,0E0,0E0,0E0,0E0,0E0,0E0,0E0,0E0,0E0],"parents":[2147483647,0,0,1,1,2,2,3,3,4,4,5,5,6,6,7,7,8,8,9,9,10,10,11,11,12,12,13,13,14,14,15,15,16,16,17,17,18,18,19,19,20,20,21,21,22,22,23,23,24,24,25,25,26,26,27,27,28,28,29,29,30,30,31,31,32,32,33,33,34,34,35,35,36,36,39,39,40,40,41,41,42,42,43,43,44,44,47,47,48,48,49,49,50,50,51,51,52,52,53,53,54,54,55,55,56,56,57,57,58,58,59,59,60,60,61,61,62,62],"right_children":[2,4,6,8,10,12,14,16,18,20,22,24,26,28,30,32,34,36,38,40,42,44,46,48,50,52,54,56,58,60,62,64,66,68,70,72,74,-1,-1,76,78,80,82,84,86,-1,-1,88,90,92,94,96,98,100,102,104,106,108,110,112,114,116,118,-1,-1,-1,-1,-1,-1,-1,-1,-1,-1,-1,-1,-1,-1,-1,-1,-1,-1,-1,-1,-1,-1,-1,-1,-1,-1,-1,-1,-1,-1,-1,-1,-1,-1,-1,-1,-1,-1,-1,-1,-1,-1,-1,-1,-1,-1,-1,-1,-1,-1,-1,-1,-1,-1,-1,-1],"split_conditions":[1E0,1.5E1,1E1,1.0429628E-1,4.78E2,-1.990983E-2,8.3E1,1.2E1,7.6091066E-2,8.760344E-2,3.5911646E-1,2E0,7.15032E-2,-7.39555E1,1.1E1,3E0,-7.398396E1,1.8E1,-3.6309525E-2,8E1,1.5E0,1.7025837E-1,4.6796417E0,-7.388626E1,1.4646044E-1,4.539E3,6E0,5.9578426E-2,2E0,2E0,7.85792E1,1.18629105E-1,3E0,1.3E1,2.7E1,1.8904017E-1,3.2E1,-1.05084935E-2,7.550012E-3,-7.395245E1,3E0,2.8E1,1E0,1.5532158E-1,1.3E1,1.3892638E-2,2.9007355E-2,9.6724376E-2,4.92E0,5.095E3,6.6E1,-7.400402E1,3E0,9.763945E-2,7.546427E-2,1.7681603E-1,2.609095E-1,-7.392742E1,1E0,-7.394452E1,1E0,7E0,9.1E1,6.855386E-2,4.7346707E-2,1.7508924E-2,-6.2371682E-2,-5.147027E-2,1.4948186E-2,7.166255E-2,4.402868E-3,8.028021E-2,2.9791037E-2,3.2087278E-2,6.299345E-2,-9.395275E-4,-2.6059752E-2,2.3818333E-2,-4.7285806E-2,-5.230823E-3,2.7309744E-2,-7.7191964E-2,5.5154946E-2,6.970429E-2,3.3225384E-2,2.6324287E-2,5.1241156E-2,1.7018734E-4,-3.4837645E-2,-3.740048E-2,-1.4824497E-2,2.2450455E-2,-8.694741E-3,-4.468786E-2,-9.938368E-3,-5.3013988E-2,1.8175766E-2,-3.1037657E-2,1.0024722E-2,4.543147E-2,8.389547E-2,3.704082E-2,7.3773037E-3,-3.1688835E-2,-6.399058E-2,-6.165045E-2,1.5252898E-2,-5.8499623E-2,-6.965468E-2,-1.969382E-2,-5.464396E-2,-1.060843E-2,-3.9496705E-2,1.3781967E-2,-1.3639472E-2,-7.198612E-2,-3.5180222E-2,-2.098359E-2,-5.3028047E-2],"split_indices":[56,32,32,100,12,169,29,17,169,96,134,25,88,5,18,20,5,17,67,29,22,145,41,5,101,6,49,169,25,25,9,73,11,17,27,68,0,0,0,5,20,0,17,109,27,0,0,102,41,6,29,5,25,134,128,120,73,5,54,5,54,34,9,0,0,0,0,0,0,0,0,0,0,0,0,0,0,0,0,0,0,0,0,0,0,0,0,0,0,0,0,0,0,0,0,0,0,0,0,0,0,0,0,0,0,0,0,0,0,0,0,0,0,0,0,0,0,0,0],"split_type":[0,0,0,0,0,0,0,0,0,0,0,0,0,0,0,0,0,0,0,0,0,0,0,0,0,0,0,0,0,0,0,0,0,0,0,0,0,0,0,0,0,0,0,0,0,0,0,0,0,0,0,0,0,0,0,0,0,0,0,0,0,0,0,0,0,0,0,0,0,0,0,0,0,0,0,0,0,0,0,0,0,0,0,0,0,0,0,0,0,0,0,0,0,0,0,0,0,0,0,0,0,0,0,0,0,0,0,0,0,0,0,0,0,0,0,0,0,0,0],"sum_hessian":[1.2556E4,7.451E3,5.105E3,1.372E3,6.079E3,9.68E2,4.137E3,9.3E2,4.42E2,5.368E3,7.11E2,3.48E2,6.2E2,2.305E3,1.832E3,8.31E2,9.9E1,4.24E2,1.8E1,3.684E3,1.684E3,6.95E2,1.6E1,2.62E2,8.6E1,2.01E2,4.19E2,6.48E2,1.657E3,1.436E3,3.96E2,8.18E2,1.3E1,6.6E1,3.3E1,3.59E2,6.5E1,5E0,1.3E1,2.374E3,1.31E3,1.231E3,4.53E2,6.84E2,1.1E1,6E0,1E1,1.25E2,1.37E2,7.6E1,1E1,1.14E2,8.7E1,6E1,3.59E2,5.04E2,1.44E2,1.503E3,1.54E2,1.1E3,3.36E2,3E2,9.6E1,3.09E2,5.09E2,5E0,8E0,1.9E1,4.7E1,2.8E1,5E0,3.54E2,5E0,7E0,5.8E1,1.393E3,9.81E2,1.24E3,7E1,1.75E2,1.056E3,7E0,4.46E2,6.79E2,5E0,6E0,5E0,9.8E1,2.7E1,8.6E1,5.1E1,5.8E1,1.8E1,5E0,5E0,9E0,1.05E2,7.3E1,1.4E1,3.5E1,2.5E1,1.21E2,2.38E2,4.57E2,4.7E1,1.39E2,5E0,7.19E2,7.84E2,6.7E1,8.7E1,3.88E2,7.12E2,2.19E2,1.17E2,2.95E2,5E0,6.8E1,2.8E1],"tree_param":{"num_deleted":"0","num_feature":"170","num_nodes":"119","size_leaf_vector":"1"}},{"base_weights":[-4.5463683E-5,4.5882306E-1,-5.8302665E-1,3.5581428E-1,1.1788937E0,-7.581855E-1,1.1450731E-1,5.82256E-2,5.0539434E-1,1.2935324E0,6.43463E-1,-2.4067071E-1,-9.024272E-1,6.4097697E-1,-2.2521941E-1,-4.7622975E-2,5.4606634E-1,5.7903403E-1,-4.729259E-1,1.019195E0,1.3284845E0,-8.1709705E-2,7.2913724E-1,-7.4062383E-1,5.936853E-2,-9.903886E-1,-4.0144494E-1,7.8439254E-1,-5.0772125E-1,-9.0831226E-1,-1.2277903E-1,-1.8834096E-1,4.8477536E-1,9.097649E-2,6.8928117E-1,3.4525955E-1,7.857748E-1,-1.3667868E0,2.9711556E-1,1.0889274E0,-4.602917E-3,4.405765E-2,1.335652E0,5.5798095E-1,8.575763E-2,-2.857913E-1,-1.0066842E0,-2.2785549E-1,5.05103E-1,-1.1543802E0,-7.699014E-1,-8.8985786E-2,-6.074629E-1,4.3366128E-1,1.1222403E0,1.5796919E-1,-7.045782E-1,-1.0608398E0,2.558207E-1,1.0407688E-2,-5.7949746E-1,8.046694E-3,-1.5945097E-2,-9.6945604E-4,3.160237E-2,1.1647048E-2,-3.430931E-2,3.9763063E-2,8.779689E-3,2.1569997E-2,-1.353237E-2,2.4825288E-2,4.9282026E-2,-8.118896E-2,8.320464E-3,-1.0154718E-2,3.843005E-2,4.0050775E-2,6.5641515E-2,4.8588503E-2,6.72107E-2,1.4947598E-2,5.231854E-2,9.484854E-3,-4.243501E-2,2.4139263E-2,-5.3861152E-2,-1.5644735E-2,5.0203856E-2,1.1647622E-2,5.0362524E-2,-4.7851335E-2,-6.0715713E-2,-5.646565E-2,-2.739571E-2,-2.549651E-2,9.561661E-3,-3.279616E-2,1.3602487E-2,-4.6526785E-3,2.9544046E-2,1.8179791E-2,6.787624E-2,3.4875877E-2,-1.6353391E-2,-5.2548688E-2,-1.7013675E-2,-5.902464E-2,-1.5218717E-2,-2.7766278E-2,5.121651E-2,-1.4447483E-2,8.789002E-3,2.3490995E-2,-3.389795E-2],"categories":[],"categories_nodes":[],"categories_segments":[],"categories_sizes":[],"default_left":[0,0,0,0,0,0,0,0,0,0,0,0,0,0,0,0,0,0,0,0,0,0,0,0,0,0,0,0,0,0,0,0,0,0,0,0,0,0,0,0,0,0,0,0,0,0,0,0,0,0,0,0,0,0,0,0,0,0,0,0,0,0,0,0,0,0,0,0,0,0,0,0,0,0,0,0,0,0,0,0,0,0,0,0,0,0,0,0,0,0,0,0,0,0,0,0,0,0,0,0,0,0,0,0,0,0,0,0,0,0,0,0,0,0,0],"id":12,"left_children":[1,3,5,7,9,11,13,15,17,19,21,23,25,27,29,31,33,35,37,39,41,-1,43,45,47,49,51,53,55,57,59,61,63,65,67,69,71,73,75,77,-1,-1,79,81,-1,83,85,87,89,91,93,95,97,99,101,103,105,107,109,111,113,-1,-1,-1,-1,-1,-1,-1,-1,-1,-1,-1,-1,-1,-1,-1,-1,-1,-1,-1,-1,-1,-1,-1,-1,-1,-1,-1,-1,-1,-1,-1,-1,-1,-1,-1,-1,-1,-1,-1,-1,-1,-1,-1,-1,-1,-1,-1,-1,-1,-1,-1,-1,-1,-1],"loss_changes":[3.359412E3,5.2079846E2,6.758602E2,2.7368317E2,5.3121704E1,3.297981E2,1.9885316E2,1.06295456E2,2.9507434E2,5.5786133E0,3.182798E1,1.4479933E2,1.5194238E2,7.222539E1,4.7192448E1,1.2685261E2,2.385675E1,1.836753E2,1.9795103E2,6.764427E0,8.687744E-1,0E0,2.46949E1,4.3518967E1,7.744258E1,1.0541577E2,3.3290726E1,4.548889E1,6.532546E0,1.5896873E1,3.5834213E1,6.1111954E1,2.6296516E1,9.979165E0,1.5049286E1,9.497812E1,1.1623901E2,5.267485E1,3.6711563E1,4.170006E0,0E0,0E0,6.439209E-1,1.625962E1,0E0,3.629464E1,2.4475021E1,3.88668E1,3.2153713E1,1.8756592E1,9.967078E1,2.4514536E1,1.3476349E1,1.5954487E1,3.467041E1,3.3685462E0,4.4377384E0,6.7007294E0,7.4259458E0,2.2674772E1,1.4059738E1,0E0,0E0,0E0,0E0,0E0,0E0,0E0,0E0,0E0,0E0,0E0,0E0,0E0,0E0,0E0,0E0,0E0,0E0,0E0,0E0,0E0,0E0,0E0,0E0,0E0,0E0,0E0,0E0,0E0,0E0,0E0,0E0,0E0,0E0,0E0,0E0,0E0,0E0,0E0,0E0,0E0,0E0,0E0,0E0,0E0,0E0,0E0,0E0,0E0,0E0,0E0,0E0,0E0,0E0],"parents":[2147483647,0,0,1,1,2,2,3,3,4,4,5,5,6,6,7,7,8,8,9,9,10,10,11,11,12,12,13,13,14,14,15,15,16,16,17,17,18,18,19,19,20,20,22,22,23,23,24,24,25,25,26,26,27,27,28,28,29,29,30,30,31,31,32,32,33,33,34,34,35,35,36,36,37,37,38,38,39,39,42,42,43,43,45,45,46,46,47,47,48,48,49,49,50,50,51,51,52,52,53,53,54,54,55,55,56,56,57,57,58,58,59,59,60,60],"right_children":[2,4,6,8,10,12,14,16,18,20,22,24,26,28,30,32,34,36,38,40,42,-1,44,46,48,50,52,54,56,58,60,62,64,66,68,70,72,74,76,78,-1,-1,80,82,-1,84,86,88,90,92,94,96,98,100,102,104,106,108,110,112,114,-1,-1,-1,-1,-1,-1,-1,-1,-1,-1,-1,-1,-1,-1,-1,-1,-1,-1,-1,-1,-1,-1,-1,-1,-1,-1,-1,-1,-1,-1,-1,-1,-1,-1,-1,-1,-1,-1,-1,-1,-1,-1,-1,-1,-1,-1,-1,-1,-1,-1,-1,-1,-1,-1],"split_conditions":[2E0,2.53E2,1E0,-2.6308966E-3,1.2261957E-1,-7.396393E1,-7.395524E1,3.64E2,1.03E2,6.75E2,2.82E2,3.1646132E0,7E0,8.1842534E-2,7.5E1,7E0,-1.12567954E-1,3.1646132E0,9.229921E-2,2.921E3,-7.4013756E1,-8.1709705E-2,4.87E2,2E0,1E1,5.6E1,1.2288358E-1,1E0,1.1E2,9.229921E-2,1.6534054E-1,6.071411E-2,1E0,1.3138242E-1,-1.4068453E-2,7.254789E-2,5E-1,1.33E2,5.8634993E-2,1.3553634E-2,-4.602917E-3,4.405765E-2,6.4E1,1.0923421E-1,8.575763E-2,1.04419716E-1,6.7E2,1.5760583E-1,1E0,-7.3946945E1,7.85792E1,-1.25E-1,4.95E0,3.5E-1,3.471E3,5.5E1,5E0,6E0,7.581248E-2,-5.4677397E-2,1E0,8.046694E-3,-1.5945097E-2,-9.6945604E-4,3.160237E-2,1.1647048E-2,-3.430931E-2,3.9763063E-2,8.779689E-3,2.1569997E-2,-1.353237E-2,2.4825288E-2,4.9282026E-2,-8.118896E-2,8.320464E-3,-1.0154718E-2,3.843005E-2,4.0050775E-2,6.5641515E-2,4.8588503E-2,6.72107E-2,1.4947598E-2,5.231854E-2,9.484854E-3,-4.243501E-2,2.4139263E-2,-5.3861152E-2,-1.5644735E-2,5.0203856E-2,1.1647622E-2,5.0362524E-2,-4.7851335E-2,-6.0715713E-2,-5.646565E-2,-2.739571E-2,-2.549651E-2,9.561661E-3,-3.279616E-2,1.3602487E-2,-4.6526785E-3,2.9544046E-2,1.8179791E-2,6.787624E-2,3.4875877E-2,-1.6353391E-2,-5.2548688E-2,-1.7013675E-2,-5.902464E-2,-1.5218717E-2,-2.7766278E-2,5.121651E-2,-1.4447483E-2,8.789002E-3,2.3490995E-2,-3.389795E-2],"split_indices":[20,11,53,169,112,5,5,30,11,11,1,3,35,169,9,35,169,3,136,6,5,0,1,16,27,28,77,31,30,136,77,150,27,110,169,169,46,16,74,169,0,0,9,82,0,77,6,125,31,5,9,52,44,66,6,34,27,35,154,169,13,0,0,0,0,0,0,0,0,0,0,0,0,0,0,0,0,0,0,0,0,0,0,0,0,0,0,0,0,0,0,0,0,0,0,0,0,0,0,0,0,0,0,0,0,0,0,0,0,0,0,0,0,0,0],"split_type":[0,0,0,0,0,0,0,0,0,0,0,0,0,0,0,0,0,0,0,0,0,0,0,0,0,0,0,0,0,0,0,0,0,0,0,0,0,0,0,0,0,0,0,0,0,0,0,0,0,0,0,0,0,0,0,0,0,0,0,0,0,0,0,0,0,0,0,0,0,0,0,0,0,0,0,0,0,0,0,0,0,0,0,0,0,0,0,0,0,0,0,0,0,0,0,0,0,0,0,0,0,0,0,0,0,0,0,0,0,0,0,0,0,0,0],"sum_hessian":[1.2556E4,7.026E3,5.53E3,6.148E3,8.78E2,4.42E3,1.11E3,2.057E3,4.091E3,7.22E2,1.56E2,9.64E2,3.456E3,4.35E2,6.75E2,1.691E3,3.66E2,3.805E3,2.86E2,8.5E1,6.37E2,5E0,1.51E2,3.61E2,6.03E2,2.939E3,5.17E2,3.87E2,4.8E1,8.7E1,5.88E2,1.338E3,3.53E2,8.8E1,2.78E2,1.787E3,2.018E3,1.32E2,1.54E2,8E1,5E0,1.2E1,6.25E2,1.3E2,2.1E1,1.34E2,2.27E2,3.67E2,2.36E2,1.683E3,1.256E3,2.06E2,3.11E2,1.91E2,1.96E2,1.1E1,3.7E1,7.7E1,1E1,4.56E2,1.32E2,3.64E2,9.74E2,8E1,2.73E2,7.5E1,1.3E1,2.3E2,4.8E1,1.568E3,2.19E2,8.26E2,1.192E3,1.13E2,1.9E1,7.5E1,7.9E1,3.7E1,4.3E1,1.7E1,6.08E2,8.6E1,4.4E1,7.3E1,6.1E1,1E1,2.17E2,3.44E2,2.3E1,1.54E2,8.2E1,3.96E2,1.287E3,4.78E2,7.78E2,8.2E1,1.24E2,2.95E2,1.6E1,4.4E1,1.47E2,4.7E1,1.49E2,5E0,6E0,1.8E1,1.9E1,6.6E1,1.1E1,5E0,5E0,1.62E2,2.94E2,1.1E1,1.21E2],"tree_param":{"num_deleted":"0","num_feature":"170","num_nodes":"115","size_leaf_vector":"1"}},{"base_weights":[-2.584474E-5,4.3464497E-1,-6.3441026E-1,2.4829204E-1,7.975222E-1,-7.5871533E-1,-1.8947987E-2,-8.722043E-1,3.1321594E-1,9.3715334E-1,4.435344E-1,-8.623573E-1,-3.1162858E-1,-8.868607E-1,8.8856794E-2,-3.4560847E-1,-1.1081636E0,7.6317126E-3,5.39318E-1,9.800841E-1,8.496397E-2,3.0646762E-1,9.684299E-1,-6.347414E-1,-1.0290023E0,-4.894E-1,5.0093425E-3,1.992201E-1,-1.0314573E0,-9.127025E-2,5.3835744E-1,-7.101521E-2,-1.9965366E-1,-7.9492354E-1,-1.4264371E0,-9.864307E-2,5.435185E-1,3.89738E-1,1.0606884E0,3.445184E-1,1.0364416E0,5.985559E-1,-1.1627766E0,1.3346983E-1,6.13837E-1,4.6215197E-3,1.0852201E0,-8.59404E-1,-4.3230432E-1,-1.2081585E0,-8.466319E-1,-5.756607E-1,6.473068E-2,-1.12547874E-1,4.961411E-1,4.309019E-2,-3.0349879E-2,-1.1701664E0,-1.8387908E-1,-6.090818E-1,1.614287E-2,2.9054078E-1,1.0300107E0,-3.2809336E-2,1.0303711E-2,-4.895263E-2,1.7673947E-2,-8.110257E-2,-4.7614712E-2,-3.1226257E-2,-1.393479E-4,4.473215E-3,4.3436646E-2,1.5712125E-2,5.9265435E-2,5.8459252E-2,2.1054031E-2,2.3994025E-2,-2.5259225E-2,4.31654E-2,5.873375E-2,3.510696E-2,-1.6520802E-2,-1.0526637E-1,1.5695654E-2,-1.5014446E-2,1.3490212E-2,2.5572136E-2,5.9704453E-2,2.8072307E-2,-3.4599345E-2,5.6439724E-2,-8.986652E-4,2.7146725E-2,-4.3935303E-2,-2.4366578E-2,2.2218516E-2,-2.6901498E-2,-6.1666053E-2,-3.5861045E-2,-6.194101E-2,-4.659992E-2,-2.326474E-2,1.3405554E-2,-2.925544E-2,-1.7208824E-2,6.5065096E-3,5.5644203E-2,6.129636E-3,-6.1639138E-2,-2.575692E-2,-4.429453E-2,3.9139137E-2,-4.2985514E-2,7.886956E-3,-9.918782E-3,1.4725103E-2,-2.369474E-2,2.7598862E-2,8.221512E-3,6.767712E-2],"categories":[],"categories_nodes":[],"categories_segments":[],"categories_sizes":[],"default_left":[0,0,0,0,0,0,0,0,0,0,0,0,0,0,0,0,0,0,0,0,0,0,0,0,0,0,0,0,0,0,0,0,0,0,0,0,0,0,0,0,0,0,0,0,0,0,0,0,0,0,0,0,0,0,0,0,0,0,0,0,0,0,0,0,0,0,0,0,0,0,0,0,0,0,0,0,0,0,0,0,0,0,0,0,0,0,0,0,0,0,0,0,0,0,0,0,0,0,0,0,0,0,0,0,0,0,0,0,0,0,0,0,0,0,0,0,0,0,0,0,0],"id":13,"left_children":[1,3,5,7,9,11,13,15,17,19,21,23,25,27,29,31,33,35,37,39,41,43,45,47,49,51,53,55,57,59,61,-1,63,65,67,69,71,73,75,77,79,81,83,85,87,89,91,93,95,97,99,101,103,105,107,-1,-1,109,111,113,115,117,119,-1,-1,-1,-1,-1,-1,-1,-1,-1,-1,-1,-1,-1,-1,-1,-1,-1,-1,-1,-1,-1,-1,-1,-1,-1,-1,-1,-1,-1,-1,-1,-1,-1,-1,-1,-1,-1,-1,-1,-1,-1,-1,-1,-1,-1,-1,-1,-1,-1,-1,-1,-1,-1,-1,-1,-1,-1,-1],"loss_changes":[3.4628486E3,5.0373047E2,3.9062036E2,3.585522E2,1.245376E2,1.965708E2,8.0451256E1,3.316591E1,3.2169397E2,6.6208984E1,5.12883E1,1.3013306E2,4.509008E1,1.5124626E1,6.1989056E1,1.3049275E1,1.7409561E1,1.1287405E2,2.0827875E2,6.1430542E1,5.708898E1,3.0227379E1,1.6654373E1,6.602936E1,6.396338E1,2.4558502E1,1.674157E1,6.9333525E0,9.660446E0,3.0433838E1,2.6383667E1,0E0,1.4212563E1,2.064568E1,6.8954926E0,8.3374756E1,4.83564E1,1.2461658E2,4.086731E1,1.6574923E1,3.6895386E1,6.294235E0,3.6849117E1,2.1724882E1,1.1569267E1,6.9826217E0,6.3656464E0,1.918106E1,3.736209E1,1.6215454E1,4.930664E1,1.7027786E1,9.408397E0,1.3198203E1,1.2765034E1,0E0,0E0,2.3180542E0,9.51536E0,1.8201202E1,2.7168213E1,2.9639729E1,2.0220558E1,0E0,0E0,0E0,0E0,0E0,0E0,0E0,0E0,0E0,0E0,0E0,0E0,0E0,0E0,0E0,0E0,0E0,0E0,0E0,0E0,0E0,0E0,0E0,0E0,0E0,0E0,0E0,0E0,0E0,0E0,0E0,0E0,0E0,0E0,0E0,0E0,0E0,0E0,0E0,0E0,0E0,0E0,0E0,0E0,0E0,0E0,0E0,0E0,0E0,0E0,0E0,0E0,0E0,0E0,0E0,0E0,0E0,0E0],"parents":[2147483647,0,0,1,1,2,2,3,3,4,4,5,5,6,6,7,7,8,8,9,9,10,10,11,11,12,12,13,13,14,14,15,15,16,16,17,17,18,18,19,19,20,20,21,21,22,22,23,23,24,24,25,25,26,26,27,27,28,28,29,29,30,30,32,32,33,33,34,34,35,35,36,36,37,37,38,38,39,39,40,40,41,41,42,42,43,43,44,44,45,45,46,46,47,47,48,48,49,49,50,50,51,51,52,52,53,53,54,54,57,57,58,58,59,59,60,60,61,61,62,62],"right_children":[2,4,6,8,10,12,14,16,18,20,22,24,26,28,30,32,34,36,38,40,42,44,46,48,50,52,54,56,58,60,62,-1,64,66,68,70,72,74,76,78,80,82,84,86,88,90,92,94,96,98,100,102,104,106,108,-1,-1,110,112,114,116,118,120,-1,-1,-1,-1,-1,-1,-1,-1,-1,-1,-1,-1,-1,-1,-1,-1,-1,-1,-1,-1,-1,-1,-1,-1,-1,-1,-1,-1,-1,-1,-1,-1,-1,-1,-1,-1,-1,-1,-1,-1,-1,-1,-1,-1,-1,-1,-1,-1,-1,-1,-1,-1,-1,-1,-1,-1,-1,-1],"split_conditions":[1E0,8.760344E-2,2E0,2E0,1.0163867E-1,6E0,2E0,2E0,5E0,1.556951E-1,6E0,3E0,4.83E0,3.1E1,3E0,4.066616E1,6.0089346E-2,5E0,1.0429628E-1,6.704134E-2,6.5E1,1.4847875E-1,4.76E0,7.6E1,4.0704872E1,4.98E0,4.98E0,1.0527681E-1,1.278708E-1,4.52E0,1.5E0,-7.101521E-2,6.5846786E-2,9.923028E-2,8.549089E-2,4.067632E1,4.07106E1,7E0,7.745233E-2,1.1311389E-1,1.1E0,1.297451E-1,3E0,4.67E0,4.3E1,1.1512717E-1,1.492857E-1,1.5E1,3.2401493E-1,5.1239043E-2,1.5723042E-1,2.9E1,1.3997886E-1,7.800815E-2,4.81E3,4.309019E-2,-3.0349879E-2,1.8507692E-1,4.4E1,1.1565154E-1,1E0,2.9E1,6.125E-1,-3.2809336E-2,1.0303711E-2,-4.895263E-2,1.7673947E-2,-8.110257E-2,-4.7614712E-2,-3.1226257E-2,-1.393479E-4,4.473215E-3,4.3436646E-2,1.5712125E-2,5.9265435E-2,5.8459252E-2,2.1054031E-2,2.3994025E-2,-2.5259225E-2,4.31654E-2,5.873375E-2,3.510696E-2,-1.6520802E-2,-1.0526637E-1,1.5695654E-2,-1.5014446E-2,1.3490212E-2,2.5572136E-2,5.9704453E-2,2.8072307E-2,-3.4599345E-2,5.6439724E-2,-8.986652E-4,2.7146725E-2,-4.3935303E-2,-2.4366578E-2,2.2218516E-2,-2.6901498E-2,-6.1666053E-2,-3.5861045E-2,-6.194101E-2,-4.659992E-2,-2.326474E-2,1.3405554E-2,-2.925544E-2,-1.7208824E-2,6.5065096E-3,5.5644203E-2,6.129636E-3,-6.1639138E-2,-2.575692E-2,-4.429453E-2,3.9139137E-2,-4.2985514E-2,7.886956E-3,-9.918782E-3,1.4725103E-2,-2.369474E-2,2.7598862E-2,8.221512E-3,6.767712E-2],"split_indices":[56,96,25,21,155,35,21,16,27,68,21,18,44,33,25,4,128,21,100,99,16,99,42,29,4,42,44,140,95,44,23,0,99,125,84,4,4,21,133,90,46,154,21,44,28,75,121,33,132,163,163,0,164,109,37,0,0,69,0,68,53,0,50,0,0,0,0,0,0,0,0,0,0,0,0,0,0,0,0,0,0,0,0,0,0,0,0,0,0,0,0,0,0,0,0,0,0,0,0,0,0,0,0,0,0,0,0,0,0,0,0,0,0,0,0,0,0,0,0,0,0],"split_type":[0,0,0,0,0,0,0,0,0,0,0,0,0,0,0,0,0,0,0,0,0,0,0,0,0,0,0,0,0,0,0,0,0,0,0,0,0,0,0,0,0,0,0,0,0,0,0,0,0,0,0,0,0,0,0,0,0,0,0,0,0,0,0,0,0,0,0,0,0,0,0,0,0,0,0,0,0,0,0,0,0,0,0,0,0,0,0,0,0,0,0,0,0,0,0,0,0,0,0,0,0,0,0,0,0,0,0,0,0,0,0,0,0,0,0,0,0,0,0,0,0],"sum_hessian":[1.2556E4,7.451E3,5.105E3,4.924E3,2.527E3,4.247E3,8.58E2,2.69E2,4.655E3,1.811E3,7.16E2,3.447E3,8E2,9.4E1,7.64E2,8.4E1,1.85E2,1.98E3,2.675E3,1.724E3,8.7E1,5.69E2,1.47E2,1.459E3,1.988E3,5.12E2,2.88E2,1.1E1,8.3E1,5.46E2,2.18E2,9E0,7.5E1,9.5E1,9E1,1.653E3,3.27E2,2.08E3,5.95E2,1.41E2,1.583E3,6.2E1,2.5E1,3.65E2,2.04E2,1.6E1,1.31E2,6.9E2,7.69E2,1E3,9.88E2,4.43E2,6.9E1,2.33E2,5.5E1,6E0,5E0,7.1E1,1.2E1,9.3E1,4.53E2,1.46E2,7.2E1,3.5E1,4E1,8.2E1,1.3E1,6.2E1,2.8E1,2.54E2,1.399E3,1.37E2,1.9E2,1.901E3,1.79E2,5.08E2,8.7E1,1.22E2,1.9E1,7.06E2,8.77E2,5.6E1,6E0,1.5E1,1E1,8.7E1,2.78E2,1.75E2,2.9E1,9E0,7E0,1.26E2,5E0,9E0,6.81E2,7.24E2,4.5E1,3.7E1,9.63E2,7.45E2,2.43E2,1.03E2,3.4E2,5.3E1,1.6E1,1.19E2,1.14E2,2E1,3.5E1,6.4E1,7E0,7E0,5E0,7E1,2.3E1,2.56E2,1.97E2,3.7E1,1.09E2,2E1,5.2E1],"tree_param":{"num_deleted":"0","num_feature":"170","num_nodes":"121","size_leaf_vector":"1"}},{"base_weights":[-3.971099E-5,4.1292346E-1,-6.0274273E-1,1.0370752E0,2.7190813E-1,1.2182125E-1,-7.72269E-1,2.0134373E-1,1.0831715E0,1.3996926E-1,1.0970676E0,6.8755823E-1,1.4498637E-3,-9.7661173E-1,-5.14775E-1,7.895741E-2,4.822409E-2,1.1796621E0,5.847611E-1,-1.0862136E-1,5.3666043E-1,6.4223063E-1,1.1781619E0,5.1794574E-2,9.75111E-1,-5.994241E-2,1.0836334E0,-1.0659219E0,-7.574044E-1,-9.055462E-1,-2.9203957E-1,-2.7039314E-2,1.6455376E-1,1.1959654E0,-5.8641393E-2,-5.5777067E-1,7.1263057E-1,-4.3305952E-2,-1.3428959E0,3.4827298E-1,9.423267E-1,5.386126E-1,9.8096144E-1,1.1959686E0,3.819221E-1,-4.2719746E-1,8.874409E-1,2.4305044E-1,1.1920286E0,-2.158165E-1,2.773851E-1,1.2901549E0,1.3654843E-2,-1.0937071E0,-2.4733819E-1,-4.7348213E-1,-9.6580946E-1,-1.0084732E0,-3.1392428E-1,-1.8805707E-1,-1.2079521E0,4.313956E-2,4.0411707E-3,6.559506E-2,4.5538988E-2,-4.6040785E-2,1.7586403E-2,4.9010366E-2,1.4107068E-2,-1.4698885E-2,1.0567613E-2,-2.2416098E-2,-8.992668E-2,9.242486E-3,3.211294E-2,4.134075E-2,6.492163E-2,4.856948E-2,2.3182055E-2,5.4926146E-2,1.7361103E-2,4.9014475E-2,6.0929623E-2,2.5442092E-2,1.2109705E-2,1.2608657E-2,-3.0302314E-2,2.3060868E-2,5.1858198E-2,3.7265178E-2,-1.5621929E-2,1.326239E-2,6.3960575E-2,-1.6793853E-2,5.741149E-3,-1.7328357E-2,2.0766845E-2,7.039443E-2,4.0334262E-2,-5.7142247E-2,-3.969117E-2,-3.8845602E-2,1.6531201E-2,-3.0715695E-2,-7.997806E-3,-3.8199488E-2,-5.3444237E-2,-5.6532323E-2,-3.4569584E-2,1.0929525E-2,-4.848166E-2,-1.48841385E-2,2.637097E-2,-6.5294795E-2,-4.0369432E-2],"categories":[],"categories_nodes":[],"categories_segments":[],"categories_sizes":[],"default_left":[0,0,0,0,0,0,0,0,0,0,0,0,0,0,0,0,0,0,0,0,0,0,0,0,0,0,0,0,0,0,0,0,0,0,0,0,0,0,0,0,0,0,0,0,0,0,0,0,0,0,0,0,0,0,0,0,0,0,0,0,0,0,0,0,0,0,0,0,0,0,0,0,0,0,0,0,0,0,0,0,0,0,0,0,0,0,0,0,0,0,0,0,0,0,0,0,0,0,0,0,0,0,0,0,0,0,0,0,0,0,0,0,0,0,0],"id":14,"left_children":[1,3,5,7,9,11,13,15,17,19,21,23,25,27,29,31,-1,33,35,37,39,41,43,45,47,49,51,53,55,57,59,-1,61,63,-1,65,67,69,71,73,75,77,79,81,83,85,87,89,91,93,95,97,-1,99,101,103,105,107,109,111,113,-1,-1,-1,-1,-1,-1,-1,-1,-1,-1,-1,-1,-1,-1,-1,-1,-1,-1,-1,-1,-1,-1,-1,-1,-1,-1,-1,-1,-1,-1,-1,-1,-1,-1,-1,-1,-1,-1,-1,-1,-1,-1,-1,-1,-1,-1,-1,-1,-1,-1,-1,-1,-1,-1],"loss_changes":[3.1256128E3,6.5560547E2,6.2727747E2,5.2675415E1,6.617798E2,6.598649E1,2.1722656E2,6.7418766E0,6.1877808E1,5.1708997E2,3.0152649E1,3.1028152E1,5.321512E1,4.433838E1,1.5927725E2,3.484047E0,0E0,4.3169556E1,3.1515709E1,2.598515E2,1.5404517E2,3.9993668E0,9.609985E0,2.199358E1,1.8289505E1,3.991597E1,6.8455734E0,3.6939575E1,3.9246338E1,4.0177856E1,1.1110712E2,0E0,3.2626944E0,3.457959E1,0E0,7.588035E0,2.1839714E1,1.9559062E2,6.522513E1,6.623021E1,2.5252441E1,2.826662E0,1.7791653E0,2.1917725E0,1.782434E-1,4.4054904E0,7.979517E-1,8.044751E0,6.9326477E0,2.0641186E1,2.0802029E1,7.9958344E-1,0E0,2.2404663E1,1.7090918E1,1.25299E1,7.213196E0,2.114447E1,3.5129425E1,8.259177E1,3.6143188E0,0E0,0E0,0E0,0E0,0E0,0E0,0E0,0E0,0E0,0E0,0E0,0E0,0E0,0E0,0E0,0E0,0E0,0E0,0E0,0E0,0E0,0E0,0E0,0E0,0E0,0E0,0E0,0E0,0E0,0E0,0E0,0E0,0E0,0E0,0E0,0E0,0E0,0E0,0E0,0E0,0E0,0E0,0E0,0E0,0E0,0E0,0E0,0E0,0E0,0E0,0E0,0E0,0E0,0E0],"parents":[2147483647,0,0,1,1,2,2,3,3,4,4,5,5,6,6,7,7,8,8,9,9,10,10,11,11,12,12,13,13,14,14,15,15,17,17,18,18,19,19,20,20,21,21,22,22,23,23,24,24,25,25,26,26,27,27,28,28,29,29,30,30,32,32,33,33,35,35,36,36,37,37,38,38,39,39,40,40,41,41,42,42,43,43,44,44,45,45,46,46,47,47,48,48,49,49,50,50,51,51,53,53,54,54,55,55,56,56,57,57,58,58,59,59,60,60],"right_children":[2,4,6,8,10,12,14,16,18,20,22,24,26,28,30,32,-1,34,36,38,40,42,44,46,48,50,52,54,56,58,60,-1,62,64,-1,66,68,70,72,74,76,78,80,82,84,86,88,90,92,94,96,98,-1,100,